118 300
国家 0.197119 -0.163468 -0.135649 0.259099 -0.128427 0.286632 0.425492 0.22593 0.122016 0.155031 -0.089337 -0.102298 -0.105451 0.132603 -0.416179 -0.315253 0.099681 -0.011646 -0.153847 -0.233186 0.112987 -0.12972 0.28092 -0.763317 -0.509325 0.26466 -0.150834 0.496227 0.384562 -0.102786 -0.241036 -0.207507 -0.026968 -0.164248 0.21339 0.022107 -0.765483 -0.019259 0.206336 0.070629 0.47887 0.082804 -0.081054 -0.392301 0.076299 -0.329058 -0.91164 -0.161228 0.056902 -0.419023 0.321197 -0.177265 -0.638459 -0.283529 -0.073125 0.004336 -0.405153 -0.161857 -0.097341 0.565321 0.05619 0.021407 0.126793 0.021112 0.26661 -0.147534 0.198619 0.136988 0.243895 -0.017101 -0.370168 0.298989 -0.129542 -0.071632 0.431463 -0.107524 0.065707 0.077867 -0.202554 -0.058404 -0.190167 0.256076 0.437219 -0.317639 -0.2919 -0.075548 -0.152908 0.138027 0.292769 -0.181876 0.295969 0.198003 -0.04197 -0.060263 0.382539 0.188358 0.115849 -0.410803 0.190201 -0.078489 0.199617 0.080497 -0.153889 -0.178866 -0.035588 0.030113 -0.364888 0.328052 -0.106128 0.408546 0.005942 -0.123141 -0.04854 -0.345053 -0.046219 -0.321944 0.016843 0.241628 0.470888 -0.100666 -0.164922 0.184575 -0.093258 0.195488 0.179524 0.329708 -0.008118 -0.265115 0.39929 0.229201 -0.188704 -0.27715 -0.467642 -0.059107 -0.18768 0.125745 0.245602 -0.114363 -0.071395 0.277171 0.377858 0.367809 0.356389 -0.255134 0.302396 0.347256 0.147462 -0.100659 -0.088919 0.192135 0.142282 0.186803 -0.129893 -0.026454 0.397104 -0.073024 0.281664 -0.105667 -0.050947 0.255772 -0.212003 0.147498 0.151195 -0.245134 0.370064 0.167904 0.113129 0.251006 -0.087168 0.414816 0.217074 0.014318 0.156091 -0.281076 0.248473 -0.060704 -0.366786 -0.109562 0.463996 -0.55824 -0.395408 -0.271643 0.143109 -0.266279 0.586184 -0.078313 -0.202748 -0.033435 0.329741 0.479365 -0.008887 -0.462066 0.29966 -0.220486 -0.333298 -0.62885 -0.369714 -0.196415 0.117139 0.226048 0.228786 -0.070682 0.058857 -0.067697 -0.132973 0.020416 0.476482 0.333222 -0.293095 -0.063645 -0.022361 0.063918 0.405561 -0.185371 -0.192746 -0.384341 0.02349 -0.101701 0.059602 -0.439285 0.002875 0.171938 0.050024 -0.010431 -0.302827 -0.064784 -0.304781 0.400952 0.033411 0.156621 0.233624 0.244523 -0.640985 -0.079309 -0.172108 -0.073841 -0.543106 -0.218719 -0.371774 0.124009 0.057661 -0.012071 -0.150103 0.113848 -0.441658 -0.539528 -0.084609 0.455392 0.038617 0.05334 -0.184789 -0.466363 -0.405267 0.00032 0.21965 0.079055 -0.229399 0.199755 0.138016 -0.375682 -0.086693 0.312257 0.287722 0.418561 0.249128 0.432948 0.176662 -0.125311 -0.161045 0.571396 -0.029395 -0.081224 0.011883 -0.228056 -0.059597 0.022429 -0.145459 -0.105802 -0.013021 -0.378572 0.210652 0.237683 -0.371583 -0.436688 0.46799 -0.149551 -0.101805 -0.083992 0.093204 0.146625 0.347478 -0.108496 0.055224 -0.14401 0.217861 -0.022156 0.109185 0.302191 0.112114 -0.210189
定义 0.444317 0.08944 -0.302733 -0.105553 -0.208685 -0.039022 0.019378 0.042203 0.060621 0.259075 -0.350485 0.290819 -0.088639 0.35097 -0.513349 -0.400633 0.094238 0.058874 0.017986 -0.213157 -0.116173 -0.188757 0.196257 0.228283 -0.297565 0.02856 0.158334 0.077196 0.124603 0.242075 0.446544 0.459494 -0.149692 0.029882 0.291991 -0.425163 -0.031158 -0.170099 0.341477 0.147426 -0.257016 -0.374679 -0.139258 -0.098153 0.215813 -0.504414 -0.235137 -0.079535 0.157091 -0.088524 0.312502 0.150273 0.182536 -0.195574 -0.152378 0.139269 -0.153981 -0.048899 -0.295439 0.10526 0.414639 -0.414094 0.004478 -0.145829 -0.139454 0.021526 -0.298545 -0.343188 0.138833 -0.093323 0.118977 -0.364528 0.156273 -0.004805 0.104323 -0.41757 0.604027 0.367698 0.033981 -0.265911 -0.09725 -0.377369 0.230095 0.176606 -0.028325 -0.371136 -0.344666 0.442669 -0.032692 -0.180871 0.236516 0.199872 -0.166458 -0.351226 -0.177342 -0.516776 -0.234935 -0.105775 0.570672 -0.062308 0.126524 0.16779 0.030777 -0.290261 0.231169 -0.273961 -0.319042 -0.128283 -0.339022 0.355235 0.451753 0.248703 -0.005457 -0.166231 0.043951 -0.233434 0.232412 0.474794 0.19446 0.073227 -0.221575 0.165829 0.149459 -0.296108 -0.054457 0.436313 -0.057287 0.328026 -0.008192 -0.033763 -0.190815 0.167099 0.081342 -0.22038 -0.169826 0.132562 -0.569103 0.061386 0.089759 -0.083159 -0.19146 -0.029848 -0.077551 0.170764 -0.218856 0.444983 0.074431 -0.236166 -0.233043 0.057989 0.283201 0.562528 0.341773 0.029514 0.022788 0.181142 -0.019188 -0.067052 0.394038 -0.112761 0.160519 -0.304416 -0.076745 -0.052775 0.442769 0.197298 0.154625 0.15577 0.176872 0.060984 0.441634 -0.11481 -0.132536 0.265208 0.466933 -0.193823 0.363643 -0.26451 0.046696 0.049963 -0.459574 -0.585861 -0.363764 -0.427111 0.165405 0.034248 -0.004983 0.160563 0.06659 0.181579 0.275478 -0.285494 0.173527 -0.003622 0.006185 -0.443635 0.027314 -0.338398 -0.497658 -0.141976 0.002153 0.177191 -0.316312 -0.187752 0.038874 0.211579 0.082124 -0.245165 0.192222 -0.369472 0.262595 0.15872 -0.235927 -0.058372 0.39797 -0.075884 0.019807 0.050065 -0.051712 -0.254349 -0.24196 -0.446168 0.068412 -0.041746 0.116976 -0.149943 -0.011917 -0.34188 0.181784 -0.055182 0.123674 0.147243 -0.375941 -0.0003 0.031251 0.452694 0.329091 0.226678 -0.202252 -0.03809 0.138072 0.186507 -0.038713 -0.048551 0.28106 0.077122 0.179007 0.512319 -0.500141 -0.125437 0.222378 -0.100716 -0.450412 0.068891 0.748273 -0.108487 -0.209081 -0.235961 0.502671 -0.005861 0.410812 -0.047489 -0.028709 0.193818 0.348109 -0.089986 -0.172238 -0.03094 -0.325166 0.007469 0.126686 0.35966 0.040273 0.242309 0.09861 0.366204 -0.088577 -0.007304 0.102022 -0.151657 0.097965 0.082716 0.154952 -0.195111 0.262732 0.254751 0.372421 -0.207953 -0.476305 -0.357702 -0.205491 0.509123 0.040139 0.110747 0.281149 0.112506 0.107678 0.291683 -0.010216 -0.048517
页脚 0.262571 -0.104547 0.178442 -0.411676 -0.142991 0.302643 0.005374 -0.067704 0.36195 -0.102212 0.292564 0.057953 0.033576 -0.22988 -0.048648 -0.002716 0.287365 -0.02305 0.103362 -0.192013 0.277253 -0.439876 0.06896 0.013374 -0.136748 -0.091379 0.255573 0.04711 0.126794 0.305871 -0.302467 0.20019 0.284354 -0.048016 0.295879 0.028379 0.053125 0.426049 0.481588 -0.213411 0.027793 -0.053703 0.206233 -0.29539 -0.096995 -0.223422 -0.019504 -0.675878 0.155464 -0.36078 0.151896 0.134058 0.325413 -0.107401 0.076863 0.088231 -0.127958 -0.175051 -0.534932 0.201519 0.584074 -0.122097 0.462005 -0.069013 0.115576 -0.428776 0.307761 -0.122409 0.039738 0.179926 0.261671 -0.409809 0.126962 -0.061495 -0.032577 -0.253057 0.327374 0.264537 0.2119 -0.254398 0.10941 -0.017079 -0.058032 0.010847 -0.315674 -0.23122 0.113254 0.334004 -0.27829 -0.093041 0.439273 0.028589 -0.389599 -0.233834 -0.32604 0.053709 -0.777003 -0.186338 0.093678 -0.113843 0.142118 0.21982 0.160741 -0.4051 -0.109416 -0.279128 -0.451878 -0.16358 0.011692 0.180384 0.084334 0.289481 0.2172 -0.130461 -0.171176 0.079446 0.123895 0.335622 0.488597 -0.027272 -0.218163 -0.045173 0.219303 0.127099 -0.016882 0.302487 -0.087529 0.006765 0.147208 0.012005 0.084537 0.106629 -0.213382 -0.025722 -0.471413 -0.003587 -0.235591 0.14795 -0.144961 0.019053 0.050046 0.134386 0.024947 0.018533 -0.253366 0.279254 0.222799 -0.027503 0.195834 0.41656 -0.059222 0.489337 0.69415 -0.117426 -0.113629 0.274619 -0.192065 -0.398468 -0.200606 0.002709 -0.018814 -0.237238 0.189715 -0.150969 -0.318059 0.040693 0.27661 0.758461 -0.040382 0.188393 0.509644 -0.458676 -0.021023 0.24342 -0.073882 -0.022979 -0.154411 0.136349 -0.150974 0.17278 -0.484407 -0.319504 0.074048 0.102824 0.192052 0.06914 0.112927 0.504888 -0.142012 0.094592 -0.350476 -0.0428 0.303339 -0.343089 -0.28049 -0.101814 0.157511 -0.366189 -0.369265 -0.292293 0.018874 0.407919 -0.058699 0.242715 0.070813 0.178425 0.223685 -0.021646 0.300941 -0.120405 0.257124 0.137529 0.058996 0.168226 0.136334 -0.231621 -0.138852 0.050592 -0.087079 -0.164267 -0.336657 -0.395075 -0.568341 0.023438 0.175906 -0.215274 -0.244339 -0.455105 0.367022 -0.045495 -0.287744 0.065639 -0.223149 -0.231019 0.071588 0.035049 0.171628 -0.1295 -0.389919 -0.062131 -0.134755 -0.022395 0.021204 0.185922 0.107572 -0.098266 0.242577 0.049941 -0.530382 -0.541491 0.060158 -0.082693 -0.202875 0.077311 0.153382 0.064357 -0.230144 0.122991 0.120374 -0.398976 0.175502 -0.318588 0.032134 -0.041124 0.07565 -0.119137 0.054193 0.165648 -0.047401 0.221554 0.031974 0.184508 0.087613 0.259734 -0.073622 0.127838 -0.205879 -0.155123 -0.060281 0.171978 -0.17181 0.210021 0.259577 -0.116706 0.714921 0.134332 0.363611 -0.308 -0.438846 -0.311531 -0.080703 0.170407 0.193638 0.333095 -0.233029 0.025603 0.114165 0.622913 -0.010816 0.012935
二进制 0.27059 -0.390436 -0.04779 -0.084523 -0.938513 0.170136 0.321266 -0.634647 0.187972 0.259317 -0.009211 0.072394 0.154558 0.236302 0.301904 0.224625 0.405073 0.13489 0.208116 0.358189 -0.023431 0.173367 -0.171923 -0.006249 0.043795 0.266571 0.962911 0.558963 -0.130089 -0.03805 -0.181034 0.020675 0.033095 -0.009964 0.264406 -0.587827 0.087664 -0.107726 -0.081791 -0.048437 -0.326078 -0.360817 0.281416 -0.72267 0.388635 -0.293211 -0.303475 0.399956 0.478775 -0.104211 -0.175794 0.587097 0.359756 -0.134227 0.072311 0.007448 -0.05415 -0.195874 -0.426925 -0.137072 0.574228 0.001528 0.623881 -0.369135 -0.040802 -0.230654 0.182246 -0.025281 -0.13965 0.380676 0.318748 -0.285164 0.073486 0.064946 -0.081858 -0.525807 0.369142 0.227773 0.203126 -0.248653 -0.206076 0.277043 -0.339713 0.317018 -0.044297 -0.57361 -0.199734 0.250236 -0.128526 -0.657718 0.068444 0.926554 -0.238694 0.060272 -0.201439 0.089919 -0.734417 -0.122393 0.49701 -0.265016 0.348226 0.221912 -0.294359 -0.487065 0.261734 -0.404656 -0.258044 0.099068 -0.090653 0.37626 0.130118 0.188468 0.234501 -0.316806 -0.306025 -0.297526 -0.52743 0.599538 0.748003 0.002512 -0.330282 -0.158691 -0.095046 0.233333 -0.250429 0.566466 0.338218 0.149042 0.697344 0.093474 0.438743 0.486702 -0.497784 0.164797 -0.800856 0.057786 -0.445785 -0.296257 -0.455177 0.045864 0.142533 -0.276384 0.234279 0.092874 -0.501572 0.360539 -0.212443 0.124202 -0.136231 0.230675 0.232951 0.193386 0.796451 0.127958 0.537239 0.143081 0.335527 -0.148907 0.005942 0.075562 -0.453817 0.193551 0.073454 0.290768 -0.196159 0.216382 0.1286 0.375262 -0.032587 0.509195 0.310892 -0.234867 0.133844 -0.240294 0.15233 -0.152228 0.343221 0.06359 -0.106413 -0.211849 -0.679455 -0.72061 -0.028448 -0.10697 0.059293 -0.177332 0.145897 0.241138 -0.640788 -0.296431 0.151028 0.385223 0.117164 0.066136 -0.337569 -0.249433 0.575773 -0.581081 -0.514862 -0.358088 0.173741 0.069286 -0.053053 -0.275998 0.275951 0.360125 -0.060053 0.082705 -0.299694 0.230122 0.204589 0.161113 0.510574 0.213853 -0.060751 0.472445 0.409452 0.159708 0.433222 -0.297865 -0.027694 -0.716562 -0.515031 -0.169843 0.17809 -0.23359 0.554509 -0.471822 0.053664 -0.195225 -0.22699 0.336841 -0.177544 -0.394285 -0.403678 0.610185 0.210632 -0.543727 0.100943 0.148338 0.252417 -0.136132 -0.15677 0.111852 0.201655 0.496934 0.204518 -0.026953 -0.324714 -0.405434 0.090257 0.02956 -0.236114 -0.34266 0.398038 -0.375096 -0.14302 0.11701 0.174871 -0.020939 0.232483 -0.463971 0.505687 0.287087 -0.061597 0.00649 0.159692 0.332177 0.041006 -0.037654 -0.277857 0.260561 0.169052 -0.109102 0.508984 0.558089 0.132448 0.362703 -0.271269 0.031841 0.016544 0.284563 -0.02832 0.090234 0.798476 0.53952 0.246455 0.098905 0.271653 -0.16495 0.106318 0.504368 -0.677603 0.324732 0.060301 0.060576 0.134714 0.649808 0.321505 -0.271259
布局 0.255306 -0.244296 0.401095 -0.289354 -0.173105 0.27226 0.420049 -0.25381 -0.059911 0.106482 0.412404 0.363663 0.278357 -0.242416 0.283376 -0.317519 0.261915 -0.076552 -0.102019 -0.051002 -0.110829 -0.391986 0.074241 0.099845 -0.184819 -0.461127 0.626169 -0.051829 0.187875 0.202003 -0.031525 0.484507 0.426655 0.279576 -0.168334 0.27622 -0.14143 0.185919 -0.155968 -0.190856 -0.251179 -0.072254 0.058151 -0.427194 0.242763 -0.010961 -0.345665 -0.031629 -0.130509 -0.193383 0.154458 -0.035719 -0.067366 -0.260601 -0.310875 0.446934 0.036193 -0.033322 0.08311 0.660066 -0.079993 -0.576519 0.200505 -0.053349 -0.091655 -0.521539 -0.040471 0.389934 0.346453 0.284958 -0.393199 0.229175 -0.030949 0.350906 -0.197059 -0.06792 0.007775 0.101285 -0.334184 0.165467 -0.17448 0.034645 -0.038177 0.726698 -0.174146 -0.310004 -0.287152 0.418551 -0.572952 -0.478321 0.081136 0.194126 0.079275 -0.201364 -0.453852 -0.475332 -0.69498 0.011184 0.185259 -0.460299 0.133834 0.44521 -0.145777 -0.23528 0.257964 0.147543 0.173987 0.018956 0.006637 0.562647 -0.160508 0.459678 -0.160075 0.131145 -0.018162 -0.12181 0.01335 0.265753 0.359362 -0.38957 0.208233 0.206631 0.465258 0.271453 0.151132 0.449259 -0.283992 0.259346 0.120463 0.215196 -0.198474 -0.124329 -0.098506 -0.087629 0.012434 0.121993 0.00146 0.116681 0.106953 0.101401 0.092581 0.163711 -0.009406 0.447632 -0.087231 0.402103 0.109652 0.139696 0.162627 0.351919 -0.276625 -0.292477 0.362161 -0.394847 -0.676833 -0.116149 -0.086361 -0.367423 -0.193087 0.744989 -0.358777 0.36022 0.002954 -0.197884 -0.129329 0.017957 0.111033 0.651979 0.206494 0.075194 0.167602 -0.139742 0.181349 0.390615 0.004675 0.077493 -0.186523 -0.219744 -0.060331 0.261146 -0.082941 -0.313638 0.258879 -0.142942 0.074171 -0.300949 0.120009 0.341905 0.173675 -0.037256 0.268894 -0.572114 0.033039 -0.322942 -0.320843 0.177299 0.168445 0.004284 -0.435769 0.340543 -0.055474 0.462386 0.061715 0.354776 -0.421497 0.046553 0.182671 0.682058 0.180351 -0.026163 0.22255 0.165152 -0.108222 0.107834 0.451322 -0.16221 -0.087072 0.410263 -0.405492 -0.356101 -0.145047 -0.630696 0.00958 0.592798 0.513625 0.267517 0.438263 -0.051825 0.030657 -0.157105 0.112322 0.130605 -0.427791 -0.123297 0.291462 0.262849 0.584381 0.108397 -0.258656 0.10024 -0.146917 -0.3795 0.201977 0.016542 -0.013492 0.183937 0.103969 -0.072528 -0.097036 -0.476826 0.048107 0.012418 0.088407 0.351559 0.337327 0.358593 -0.037911 -0.030116 0.398307 -0.221153 -0.009915 0.217888 0.033339 0.159102 -0.417899 -0.627631 -0.14312 0.095381 0.004476 -0.010087 0.157697 0.359341 0.053957 0.066741 -0.363179 0.30788 -0.134959 -0.425215 -0.400534 0.131511 0.001178 -0.301532 0.084508 -0.596247 0.545979 -0.08504 0.231575 -0.093845 -0.57846 -0.116124 0.219618 0.105649 0.532393 0.270703 -0.072943 0.294447 -0.256147 0.445545 -0.221949 0.04041
整体 0.429938 0.12802 0.47915 -0.16588 -0.514211 0.126438 0.397817 0.155971 0.280033 0.197932 0.025724 -0.202816 0.129492 -0.262781 -0.091889 -0.483926 -0.054134 0.235554 -0.212096 -0.051656 0.18431 -0.121924 0.207786 -0.132537 -0.027257 -0.233044 0.671717 0.051576 0.01536 0.097601 -0.210221 0.201156 0.255259 0.184001 -0.191991 0.030189 -0.047623 0.404142 0.138281 -0.135307 -0.372779 0.031348 0.173202 -0.365551 0.347567 -0.116277 -0.18605 -0.256381 -0.682278 -0.025574 -0.08778 0.18752 0.101445 -0.442902 0.215689 0.373211 -0.097263 0.327189 0.188817 0.002595 0.095681 -0.406993 0.511168 0.240597 0.302367 -0.112551 0.13701 -0.069843 0.347209 0.355776 -0.309939 -0.000683 0.022341 0.056183 -0.070016 -0.44675 0.441187 0.181857 -0.216141 0.157106 -0.154952 -0.012174 0.232693 0.217476 -0.134218 -0.161608 -0.329723 0.163053 0.135975 0.030096 0.019011 0.095118 -0.180852 -0.31259 0.350768 0.151206 -0.422595 0.040397 0.047604 -0.002643 0.325029 0.283194 -0.107435 0.018285 0.452437 -0.371121 0.052847 -0.018793 -0.132562 0.408177 0.353838 0.458801 -0.06697 0.0809 0.276458 -0.31249 -0.021042 0.076057 0.304363 -0.092614 -0.236497 0.150574 0.522323 0.513075 -0.019838 0.175403 0.103234 0.18942 0.174139 0.518761 -0.105502 -0.08176 -0.379656 0.05599 0.046601 0.156041 -0.391738 0.009214 -0.261455 0.085219 0.056189 0.043995 0.070229 -0.406143 0.081431 0.182524 0.325252 -0.068961 -0.118407 0.213863 0.117344 0.029531 -0.110121 0.077182 -0.360825 0.008467 -0.029151 -0.685533 -0.14203 0.136875 0.091988 0.236122 -0.213758 -0.23851 -0.029126 0.507787 0.235069 0.32045 0.200041 -0.01694 0.133068 0.051032 -0.384831 -0.099858 0.268903 -0.296416 -0.308745 0.126938 0.349315 0.057798 -0.121792 -0.50041 -0.300344 -0.394513 0.065422 -0.062117 0.12379 0.089852 0.015136 0.266771 0.002717 -0.474459 0.172811 0.052611 0.081082 0.088959 0.176702 0.014925 -0.350432 0.152084 -0.092955 0.064723 -0.216219 0.341498 -0.21333 0.07242 -0.008745 0.160014 0.098266 0.168201 0.341893 -0.251706 -0.539157 -0.128452 0.143274 0.049818 -0.289704 -0.330328 0.01284 -0.031277 0.146664 -0.306239 -0.185099 0.4379 0.096607 0.261254 0.09984 0.47054 0.1788 0.101171 -0.0112 0.200402 0.071181 -0.150587 0.302382 0.232477 0.314709 0.017739 -0.351701 -0.020592 -0.147637 0.014238 -0.194212 -0.075147 0.129005 -0.037801 -0.105828 -0.165008 -0.085907 0.001041 0.307157 -0.029233 -0.036423 0.116032 0.100706 0.226325 -0.156008 0.003866 0.167408 -0.229584 0.062009 -0.109343 0.045319 0.037466 0.1736 0.009665 -0.013061 0.265249 -0.018996 -0.184566 0.231049 0.778147 0.03966 0.082495 0.355281 0.440666 -0.163984 -0.380038 -0.166979 -0.1079 0.244657 -0.504434 -0.37095 -0.520348 0.124143 0.009219 0.219176 0.024263 0.250807 0.077231 0.11612 0.424225 0.353477 -0.191477 -0.288495 -0.036917 -0.562835 -0.02069 0.027129 -0.514469
利用 -0.077867 -0.199724 0.099886 -0.328636 -0.26014 -0.213844 0.288505 -0.347358 0.054283 -0.088931 -0.252931 0.008883 0.096308 0.073318 -0.283159 -0.186066 0.172378 0.293691 -0.089102 0.213797 0.066978 -0.191388 -0.358217 0.001676 -0.122854 0.064077 0.011796 0.295548 -0.175891 -0.058343 0.529808 -0.25227 -0.000911 0.178351 0.583399 0.403579 -0.001122 0.373376 0.175229 0.17467 -0.052285 -0.262607 0.197432 -0.15985 -0.05289 -0.087952 0.279201 0.150765 -0.057034 -0.247377 0.130915 0.021932 -0.045199 -0.315466 -0.051484 -0.284423 0.136353 0.194885 0.066677 0.381848 0.481375 -0.283267 0.015444 0.020735 0.000818 -0.19179 -0.31725 0.023672 -0.227604 0.091156 -0.110098 -0.082261 0.324098 0.157469 0.177721 -0.222519 0.185376 -0.078775 0.106655 -0.130421 -0.189597 -0.109596 -0.022933 0.110083 -0.158848 0.105996 0.154384 0.035054 -0.166261 -0.171595 -0.040412 -0.156841 -0.252038 -0.183681 -0.068611 -0.026371 -0.338438 -0.492101 0.073003 0.054647 0.000602 0.305974 -0.182649 -0.412161 0.157162 0.372166 -0.017014 0.259822 0.324155 0.152377 -0.144299 0.04025 -0.05037 -0.41102 -0.007595 -0.076037 0.024818 -0.019995 0.570863 -0.233752 -0.221879 0.277195 0.000279 -0.427903 0.045177 0.195334 -0.203929 -0.107327 0.157687 0.105075 -0.289822 0.200269 -0.041443 -0.245665 -0.27877 0.260634 -0.322648 -0.189108 -0.061018 0.193353 0.289708 -0.203812 0.002848 0.412538 -0.250923 -0.141085 0.057854 -0.570348 -0.281788 0.191185 0.392322 0.300287 -0.124579 -0.062884 -0.092703 -0.05453 0.170385 -0.213087 -0.158987 0.265201 -0.226483 0.016955 0.111443 0.130695 -0.187831 -0.025226 0.1354 0.262159 0.117689 0.251938 0.358466 0.016533 -0.031063 0.271152 0.344537 -0.203679 -0.046006 -0.196814 0.009712 0.095132 -0.040137 0.096655 -0.295364 -0.225422 0.065742 0.451592 -0.034089 0.179664 0.110722 0.194092 -0.0469 0.36084 -0.199614 -0.147305 0.100019 -0.205795 0.002457 0.078715 -0.287253 0.139564 -0.009705 0.398498 0.114565 0.461544 0.398155 -0.018964 0.574963 -0.013212 -0.018852 -0.428524 0.493886 0.216608 -0.014291 -0.035447 0.149569 0.034556 0.145255 -0.157122 0.052383 -0.213603 -0.072488 -0.3126 -0.137843 0.34422 0.367907 0.151986 0.053854 -0.069088 -0.104517 -0.380844 0.085514 -0.203773 -0.195394 0.1737 -0.288557 0.102269 0.172923 0.216059 -0.09821 0.080633 0.135446 -0.157462 0.120247 0.283515 -0.137201 0.229562 -0.029658 -0.159176 0.009477 -0.213918 -0.165064 0.167121 -0.158574 -0.016031 0.229763 -0.018405 -0.046565 0.07803 -0.097397 -0.158775 0.272548 -0.132984 0.325672 0.464747 0.011238 -0.160514 0.064572 0.071982 -0.469819 0.15174 -0.355423 0.525271 -0.187341 -0.271622 0.216309 0.429565 -0.292346 -0.128378 -0.027096 0.011365 0.0343 0.40723 -0.16828 -0.472623 0.539386 -0.113765 -0.028956 0.02061 -0.444823 -0.164065 0.207201 0.291347 -0.088584 0.011781 0.004634 -0.277321 -0.249202 0.41029 0.029617 -0.236572
页眉 0.179928 0.016269 0.02425 -0.377175 -0.185291 0.079463 -0.021278 -0.041077 0.331897 -0.129398 0.390263 -0.060338 0.083167 -0.242137 0.051801 0.28195 0.187661 0.0211 0.29648 -0.062163 0.447003 -0.494342 0.034655 -0.111888 -0.271047 0.084474 0.171929 0.086311 0.097207 0.202582 -0.417197 0.071002 0.29473 0.109849 0.485033 0.199933 0.099493 0.273325 0.513243 -0.106015 -0.250942 -0.020249 0.115302 -0.349487 -0.134674 -0.245329 -0.093067 -0.502218 0.209073 -0.302715 0.152687 0.234424 0.609876 -0.023827 -0.097828 0.000482 -0.099417 -0.152565 -0.472644 0.046576 0.676423 -0.068577 0.438646 -0.043498 0.123333 -0.259514 0.277354 -0.064985 -0.140275 0.227236 0.413935 -0.504212 0.205195 0.110134 0.028187 -0.322874 0.404551 0.332646 0.140852 -0.147411 0.179577 0.237297 -0.136318 0.031269 -0.34311 -0.257306 0.131441 0.054786 -0.229963 -0.220639 0.411729 -0.135786 -0.387473 -0.251117 -0.294232 -0.041837 -0.680933 -0.174946 0.068484 -0.150791 0.228425 0.243563 0.285655 -0.406795 -0.153138 -0.183219 -0.376165 -0.115289 -0.020834 0.204078 0.200512 0.334417 0.170168 -0.111326 -0.069598 0.036179 -0.004285 0.257851 0.618638 -0.151343 -0.218461 -0.255131 0.276765 0.111315 -0.144399 0.427603 -0.055733 0.082305 0.124511 -0.070663 0.103163 0.290065 0.153136 -0.058055 -0.427119 0.026255 -0.360648 -0.168034 -0.301983 0.043178 0.069481 0.216326 -0.040348 0.130117 -0.23199 0.375178 0.185667 0.09157 0.152067 0.3791 -0.027746 0.444213 0.660156 -0.190813 -0.100149 0.202528 -0.156873 -0.332334 -0.368011 -0.027449 0.100067 -0.296916 0.106634 -0.133519 -0.32878 0.310518 0.236048 0.783374 -0.227595 0.220419 0.518231 -0.42882 -0.214563 0.174221 -0.084118 -0.158418 0.0237 -0.016965 0.029018 0.010581 -0.652993 -0.339872 -0.031023 0.101608 0.08222 -0.032867 0.119715 0.620244 -0.172712 0.231603 -0.361289 -0.054024 0.31924 -0.307494 -0.504431 -0.336203 0.10441 -0.473617 -0.54041 -0.245629 -0.050626 0.24668 -0.077838 -0.148462 0.089289 0.297546 0.120684 0.009222 0.36265 -0.058671 0.386065 0.120774 0.181346 0.282237 0.075403 -0.156613 0.087652 0.257487 -0.074585 -0.046345 -0.304792 -0.485582 -0.676516 0.177387 0.135677 -0.34342 -0.331532 -0.500768 0.375374 -0.046403 -0.328861 0.076545 -0.253485 -0.241718 0.317958 -0.017555 0.195923 -0.125559 -0.351553 -0.04587 0.101569 -0.224962 -0.01838 0.169295 -0.022012 -0.0781 0.202661 0.166146 -0.66125 -0.5143 -0.100925 0.072623 -0.195355 -0.018088 0.158603 -0.060804 -0.215404 -0.034318 0.295192 -0.496419 0.007315 -0.229744 -0.020113 -0.154808 -0.209589 -0.339609 0.152833 0.298895 -0.001287 0.048621 0.106156 0.23195 -0.027225 0.219113 0.01701 0.159761 -0.041763 0.053671 -0.175528 0.240117 -0.078894 0.207322 0.220864 -0.026909 0.68941 0.171132 0.374663 -0.356846 -0.328178 -0.291096 -0.173302 0.130718 0.280773 0.456132 -0.03003 0.207062 0.079845 0.669511 0.008068 -0.000773
首字 0.126099 0.41653 -0.23972 0.575261 -0.040793 0.051928 0.382708 0.011727 0.215679 0.273816 0.037856 0.344843 -0.234697 -0.18729 0.15166 0.170137 0.05702 0.000694 0.052692 0.076063 0.338744 0.019477 -0.103596 -0.247468 -0.13805 0.071999 0.501215 0.266912 0.083491 -0.072358 -0.422896 0.32268 1.003498 -0.143592 0.53502 0.040441 0.603193 -0.024447 0.04026 -0.3817 0.003186 0.317904 -0.072434 -0.333547 0.083378 0.181536 -0.138108 -0.219571 -0.162864 -0.302928 0.169799 0.279748 0.13688 0.125574 0.106074 -0.153581 -0.083867 0.003886 -0.500956 0.092879 0.390461 -0.460788 0.36357 -0.119518 0.210865 0.079792 0.180216 -0.297896 0.286072 0.805234 0.257707 -0.442161 0.111349 0.059119 0.420747 -0.265651 0.137489 0.19829 -0.053872 -0.424883 -0.152757 -0.244283 -0.197978 0.3317 0.067058 -0.139319 0.201636 0.177516 -0.443142 -0.103583 0.201104 -0.026777 0.251789 -0.133841 0.012998 -0.104452 -0.401076 0.00256 0.391035 -0.232149 0.131376 0.001476 -0.038922 -0.219836 0.852866 -0.410297 -0.557122 -0.458012 -0.096192 0.046785 0.222895 0.250612 0.051955 0.233995 -0.270273 -0.575239 0.163761 0.247855 0.516433 -0.333978 0.288872 0.102873 0.876674 0.33821 -0.177915 0.165907 0.386877 -0.010419 0.234891 0.098515 -0.242057 -0.031497 -0.224333 0.173774 -0.549284 0.375942 -0.306116 -0.715963 -0.041412 0.366447 0.411724 0.155183 -0.117519 0.362535 0.061459 -0.022143 0.163089 -0.070864 0.109486 0.732365 0.084257 -0.34368 0.13152 0.00609 0.16455 -0.32711 -0.215865 -0.119425 -0.029541 0.0438 0.015825 0.353098 -0.043913 -0.133303 -0.084943 0.030499 -0.048084 0.520316 0.190674 0.131406 0.308898 -0.188144 -0.245912 0.692323 0.138329 0.024329 0.143704 -0.239867 -0.491604 -0.079203 -0.400574 -0.424481 0.108726 -0.072945 0.160891 0.041532 0.043947 0.629045 0.07687 0.618558 -0.036022 0.046356 0.118462 -0.397452 -0.491681 -0.456922 0.280315 -0.508037 0.224055 -0.180388 -0.161973 0.105793 -0.02812 0.005272 0.416922 -0.068037 -0.122378 0.265901 0.266125 0.084909 0.14837 0.102157 -0.354771 -0.132449 -0.2851 0.241977 -0.02045 -0.194104 -0.484939 -0.128044 -0.10988 -0.183682 -0.258406 0.140091 -0.074233 -0.181332 -0.178326 0.08336 0.093616 0.248023 -0.187136 -0.213573 -0.145148 -0.073495 0.448546 0.292563 0.207014 -0.349179 -0.129143 -0.186773 0.342493 -0.186815 -0.204184 0.131346 0.461199 -0.210047 -0.27494 -0.131326 -0.530706 -0.436785 -0.156797 -0.184203 -0.035756 -0.555463 0.744336 -0.502039 0.174622 0.203301 0.411878 -0.106925 -0.741616 -0.105314 -0.184494 -0.498974 -0.284034 -0.225708 -0.135341 0.213119 0.018533 -0.096916 -0.207648 0.235003 0.475148 -0.117848 0.049896 -0.255912 -0.095369 -0.238567 -0.103016 0.104979 0.295908 -0.606291 -0.277513 0.022095 0.543464 0.276083 0.296522 -0.085589 0.124416 0.2871 0.008844 -0.318215 0.250451 -0.072431 -0.10073 -0.010096 0.599233 0.550835 0.40926 0.213689
工程学 0.468396 0.234125 -0.107548 -0.462102 -0.550801 0.124158 0.289083 0.107663 0.585903 0.405323 0.01703 -0.10188 -0.198101 0.397852 -0.378095 0.215207 0.041639 0.073577 -0.314836 -0.231745 -0.244879 -0.33088 0.106321 0.132359 -0.104379 -0.050414 0.208645 0.280277 0.328164 0.215012 0.236452 0.190697 -0.262484 -0.035396 0.013249 -0.195618 -0.21271 0.113818 0.36483 0.107098 0.193758 -0.319995 -0.072661 -0.302948 0.471936 -0.798654 -0.189525 -0.268584 0.131597 -0.150797 0.236148 0.247036 -0.053388 -0.865686 0.389175 -0.353709 0.362224 -0.020788 -0.170938 0.276041 0.021368 0.197516 0.618455 0.198998 -0.089081 0.161798 0.093069 -0.169289 0.170482 0.424575 -0.240243 -0.028131 0.332217 0.450312 0.153738 -0.164729 -0.181828 0.437061 -0.083341 0.256521 0.057255 -0.168048 -0.009992 -0.249531 -0.151896 0.40552 0.158377 0.028958 -0.280192 -0.181705 -0.086847 0.428563 -0.192227 -0.45394 -0.184613 0.376281 0.025969 -0.378171 0.41513 -0.069053 0.290775 0.338349 -0.397899 -0.102511 0.061272 0.242742 0.351449 0.30082 -0.299031 0.400438 -0.130927 0.403295 0.164942 0.02838 -0.397422 0.075723 -0.430333 -0.514539 0.8274 0.346346 0.081686 0.118021 0.12911 -0.302502 0.416087 0.368972 -0.835449 0.510001 0.515676 0.612021 0.087736 0.149726 0.082029 -0.499479 -0.201157 -0.120549 0.056397 -0.239248 -0.60558 -0.081847 -0.133295 -0.468473 -0.102656 0.150137 -0.03913 -0.1491 -0.228719 -0.417765 0.282215 0.389661 0.137255 0.298727 -0.664534 -0.208191 -0.225142 -0.306645 -0.423462 -0.535446 -0.218315 -0.041951 -0.674478 0.403614 0.230975 -0.355923 -0.03956 0.295958 0.284004 -0.29196 0.237941 0.157532 0.055327 0.043764 -0.253798 0.097955 0.277448 -0.396651 -0.320347 -0.034773 -0.080527 0.212209 0.584415 -0.209619 0.037056 -1.048539 -0.075894 -0.391351 0.052828 0.86975 -0.277047 -0.100869 0.317281 -0.067548 0.589332 -0.24146 -0.315576 0.529904 -0.063579 0.633455 -0.723041 0.205647 0.264201 0.263925 -0.268816 0.034401 -0.45795 0.450155 0.355385 0.149299 -0.26807 0.151345 0.088288 0.245569 0.166809 -0.178603 0.697817 0.268247 0.040365 0.001778 -0.093275 -0.23257 -0.375727 -0.489561 0.127411 0.286017 0.245032 -0.439805 -0.477715 0.112841 0.240441 -0.433799 0.626014 0.185854 -0.464141 0.1787 0.062352 0.580914 -0.313119 -0.361009 -0.219474 -0.065178 -0.090975 -0.221394 0.259876 -0.405355 -0.310478 0.02587 0.179181 -0.009103 -0.249769 -0.481365 0.228534 -0.282242 -0.296197 -0.182745 -0.093431 -0.01419 -0.042506 0.183379 0.229238 -0.31434 0.50142 -0.070595 0.017149 0.381143 0.09744 0.074618 0.25297 -0.590962 0.080518 0.190685 -0.52974 0.358476 -0.569008 0.168529 0.029995 0.187049 0.286636 0.077201 -0.106041 -0.376809 -0.411543 -0.079377 -0.368864 -0.156719 0.695157 0.085184 -0.057774 0.316818 -0.004798 -0.572445 0.046672 0.633726 0.050673 0.30552 -0.214584 0.251789 0.12713 0.230788 0.272621 0.09921
脉络 0.633263 0.310998 -0.281916 0.044334 0.00377 0.273454 0.162527 -0.080555 0.128478 -0.057108 0.177611 0.392817 -0.024404 -0.140177 0.076253 0.025774 -0.401068 0.351541 -0.422216 0.01911 0.207666 -0.247919 -0.041309 -0.270584 -0.068622 -0.478944 0.15237 0.088369 -0.188924 -0.397027 -0.028754 -0.048686 -0.014527 0.363425 -0.028405 -0.095171 -0.196807 0.144193 -0.202618 -0.123355 -0.26631 -0.036946 -0.170206 -0.424649 0.206924 0.013239 -0.26493 -0.669601 0.04734 0.1831 0.329908 0.151544 0.575552 -0.193888 0.287935 -0.151124 0.168723 0.07944 -0.725241 0.413478 0.622887 -0.284711 0.288055 0.217788 0.007851 -0.062502 0.633941 -0.096634 0.450898 0.482274 -0.176778 -0.302953 0.266388 -0.090831 -0.159021 -0.470217 0.527491 0.101071 -0.302407 0.343817 -0.207877 -0.201688 0.265164 0.076918 -0.169359 -0.372368 -0.200201 0.27488 0.202756 0.077579 0.188844 0.080817 -0.298517 -0.333662 -0.919482 0.064316 -0.653071 -0.219688 0.077899 0.052455 0.095772 0.200714 0.191683 -0.100723 0.038768 -0.24707 0.1198 -0.255734 -0.07358 0.359784 0.028229 0.182933 -0.417137 0.339847 -0.087783 -0.330398 0.346039 0.437781 0.480733 0.064204 -0.242648 0.154906 0.24937 -0.054264 -0.006362 -0.063469 0.144019 0.486305 0.303696 0.389478 0.006377 0.206727 -0.046918 -0.244117 -0.093546 0.628201 -0.169995 -0.106117 -0.196838 0.634854 0.20667 0.71905 0.004755 -0.080913 -0.573935 0.713047 -0.130408 0.348607 0.418626 -0.08966 -0.328445 0.078641 -0.202145 -0.114012 0.154806 -0.348307 -0.588075 0.095633 0.307463 0.071039 -0.129076 -0.166447 0.282899 0.04734 0.412462 0.026738 -0.626126 -0.17067 0.190736 -0.62855 -0.219008 -0.27182 -0.079252 -0.095385 -0.138176 0.051398 0.106124 0.064798 -0.040844 0.04649 0.01887 0.057122 -0.36109 -0.475772 -0.12582 -0.176654 -0.113937 0.416277 0.036397 0.273922 0.180036 -0.394038 -0.427797 0.02764 0.007133 0.158027 0.130379 0.59364 -0.100644 -0.347497 -0.038401 -0.003767 -0.059534 0.488301 -0.247367 0.113593 -0.231392 0.350781 0.203753 -0.639618 0.298921 0.366698 -0.683264 0.023981 0.565927 -0.724476 0.489044 -0.003237 -0.332519 0.318055 -0.027947 -0.712205 -0.391714 0.300274 0.406202 0.340814 -0.050952 0.262636 0.371945 0.187392 -0.285164 0.013542 -0.129036 -0.247671 0.22739 0.443857 0.594046 0.095 -0.381073 0.194297 -0.539552 0.076201 -0.275145 0.080488 -0.404285 -0.193255 0.261362 0.455591 -0.091918 -0.063355 0.480653 -0.264867 -0.073423 0.003973 -0.350521 0.209913 -0.60393 -0.014578 0.018736 -0.15043 0.294726 -0.316257 -0.520999 -0.473672 -0.262703 -0.082709 0.103516 0.362718 -0.024017 0.5124 -0.010591 0.234396 -0.011695 -0.200193 -0.486364 0.06647 0.033547 0.28202 0.259488 0.414446 0.004878 -0.026168 -0.253827 -0.086141 0.427578 -0.159859 0.182996 0.148898 0.08419 -0.07413 0.311724 -0.141562 0.393075 -0.081668 -0.405762 0.231877 0.483191 0.429882 0.07661 -0.36355
文件 0.273633 0.115776 0.437332 -0.091722 -0.073297 0.379959 0.62042 -0.036829 -0.286351 0.560723 0.097313 0.069831 0.51952 0.381309 -0.093156 -0.226048 0.777207 0.344049 -0.268172 0.056084 0.442111 -0.832096 0.07585 0.272064 -0.549179 -0.275159 0.341409 0.40457 0.17406 -0.102484 0.182775 0.107088 0.37172 -0.439076 0.779105 -0.397122 -0.114535 0.179808 0.023993 -0.069169 -0.026229 -0.289514 -0.154963 -0.432267 0.322474 -0.328381 -0.149077 -0.228451 0.279358 -0.394059 0.03291 -0.175292 0.354327 -0.245309 -0.097223 -0.451962 0.248444 0.353856 -0.37295 -0.467579 0.779714 -0.126418 0.250935 0.001418 0.17634 -0.220718 0.291404 -0.212187 -0.262027 -0.137942 0.40821 0.013257 0.347017 -0.139498 -0.262494 -0.662864 -0.042772 0.795443 0.335734 -0.176445 0.262914 0.091496 0.361052 -0.209826 -0.861345 -0.110518 0.3155 0.024149 -0.245707 0.076931 0.02652 -0.231606 -0.10494 0.00258 -0.15513 0.270234 -0.733055 -0.051215 0.268632 -0.174603 0.290701 0.267473 0.153507 -0.332264 0.266923 -0.343363 -0.25825 -0.304991 -0.299796 0.59527 0.47523 -0.094633 0.259996 -0.438783 -0.174525 0.178411 0.090809 0.264764 0.378282 -0.081205 -0.314967 -0.142156 0.24726 0.320766 -0.010818 0.335032 -0.265014 0.045323 0.130713 0.078405 0.34582 0.134035 -0.187953 0.060332 -0.089533 0.000632 -0.478867 -0.021717 -0.343645 0.322674 0.224769 -0.299088 0.052014 0.266654 -0.242166 0.44399 0.040135 -0.323607 -0.345149 0.231548 -0.077997 0.080709 0.338937 0.090465 0.046235 0.116213 -0.216559 0.071901 0.127966 -0.175684 -0.131525 -0.111106 -0.02873 0.015336 -0.358643 0.276951 0.097154 0.015993 -0.087982 0.129803 0.164241 -0.450417 0.259552 0.30189 -0.137972 -0.175269 -0.161011 0.163467 0.233882 -0.176479 -0.559648 -0.743666 0.061365 -0.116684 -0.122396 0.075677 -0.032263 0.097106 0.169592 0.001066 -0.260481 0.077719 0.437069 -0.075339 0.006224 -0.303769 0.278538 -0.672118 -0.204219 -0.229531 0.119585 0.390923 -0.160207 -0.06799 0.21139 -0.147803 9.3e-05 0.115764 -0.042819 0.18829 0.326852 0.420887 0.07287 0.358248 0.286498 -0.044765 0.093567 0.214357 0.356229 -0.1222 -0.227494 -0.644502 -0.7054 0.017217 0.069551 -0.06262 -0.047181 -0.077118 0.112949 -0.008672 0.116809 -0.04848 -0.547582 -0.531773 -0.082144 0.079737 0.544001 -0.768825 -0.026137 -0.168848 0.048307 -0.459911 -0.012272 -0.09122 0.082543 0.261657 0.063373 0.800836 -0.216713 -0.305194 0.152069 -0.252507 -0.393802 0.180083 0.008258 0.272835 0.073786 -0.090713 0.406776 -0.723885 0.171399 -0.013139 0.577295 -0.154173 0.10356 -0.100983 0.098926 -0.137879 0.325966 0.017688 0.385499 0.155968 -0.108468 -0.123957 -0.28426 -0.009213 -0.241962 -0.214239 0.163269 0.166463 -0.086623 0.263664 -0.112335 -0.074913 0.367475 0.092535 0.620692 -0.037422 -0.217846 -0.163374 0.030867 0.325801 -0.743163 0.022951 0.123457 0.042095 0.240438 0.451003 0.254749 -0.006891
连通性 0.286085 -0.076734 -0.265324 0.183528 -0.237159 -0.009428 0.412238 -0.604215 0.366538 -0.112836 -0.027885 -0.00588 0.316241 0.019196 -0.306214 -0.348297 0.295839 0.34884 -0.039205 -0.013468 0.203154 -0.456529 0.095002 -0.200277 0.051117 0.071892 -0.044591 0.371888 -0.081458 0.126858 -0.329256 0.203113 0.060499 0.024057 0.102051 0.098638 -0.203665 0.113559 0.251764 -0.074893 -0.340603 -0.130815 -0.057167 -0.149942 0.073126 -0.278531 -0.019097 -0.281774 0.10639 0.251878 0.055485 -0.046376 0.028597 -0.018042 0.106115 -0.024989 0.170785 -0.014104 -0.182208 0.019031 0.351526 0.007717 0.356549 -0.029851 0.11534 -0.385585 -0.072737 -0.108832 0.055646 0.265818 0.038201 -0.011308 0.149493 -0.011114 0.030332 -0.500149 0.318529 0.108904 -0.231512 -0.213157 -0.061236 -0.33421 -0.033794 0.053664 -0.204421 -0.327458 -0.402409 0.538927 -0.021262 -0.495979 0.171258 0.332708 -0.28153 -0.258491 -0.230849 -0.015381 -0.197549 -0.337257 0.136701 -0.186143 0.097564 0.193181 -0.319277 -0.18953 0.518212 -0.046651 0.070958 0.09422 0.182897 0.155686 0.079385 -0.227971 0.073465 0.113346 -0.163398 -0.29544 0.026987 0.496975 0.37823 -0.322427 0.030538 -0.054993 0.253485 -0.073748 -0.190162 0.349143 -0.353394 0.093339 0.101863 0.169359 0.25678 0.271159 -0.14497 -0.01958 0.119368 0.205485 -0.129758 0.240741 -0.109761 -0.182751 0.221232 -0.170883 -0.021539 0.208361 -0.358065 0.335034 0.206959 -0.002355 -0.312927 0.095588 0.183685 0.529155 0.224473 -0.189283 -0.042221 -0.038243 -0.032665 -0.29858 0.238189 0.011302 0.056883 0.007041 0.044211 -0.036585 -0.155534 0.073199 0.161743 0.134696 0.049983 -0.052796 0.482491 -0.160169 0.151456 0.098653 0.230746 -0.123841 -0.066978 -0.30386 -0.13097 0.121928 -0.153691 -0.501716 -0.329534 -0.481828 -0.150456 -0.102145 -0.166674 0.572125 -0.189353 0.444187 0.03674 -0.194227 0.288045 -0.137044 -0.106809 -0.082291 0.156109 -0.085513 -0.369658 -0.095202 0.345653 0.483405 -0.464965 -0.018091 0.149662 0.14031 -0.137517 0.12568 0.176554 -0.057205 0.214381 0.130368 -0.093559 0.012139 0.352179 -0.030791 -0.28414 -0.117606 0.019151 -0.136791 -0.404373 -0.345146 -0.406579 0.123424 0.224578 0.046483 -0.040975 -0.214337 0.132725 -0.432439 0.059546 0.292695 -0.13708 0.069896 0.22106 0.264184 0.276023 -0.015127 -0.542441 0.361523 0.018116 0.05624 -0.27672 0.164961 -0.108031 -0.051807 0.000283 0.091359 -0.088405 0.076188 0.020079 -0.014785 -0.426858 -0.008024 -0.142799 -0.014092 -0.139375 -0.129898 0.329816 -0.115209 0.269199 0.064087 0.183623 0.200915 0.101823 -0.179019 0.052606 0.368317 -0.014885 -0.077666 0.153676 0.330896 -0.084518 -0.172312 0.310125 0.336664 -0.000249 0.077815 -0.127713 -0.003581 0.060628 0.230987 -0.061484 -0.321353 0.443086 0.216388 -0.042613 -0.239997 -0.218151 -0.318853 -0.048924 0.605238 -0.128425 0.032026 -0.021751 -0.00087 -0.036889 0.290233 -0.044231 -0.201398
表格 -0.285905 -0.277715 0.038462 0.368924 -0.344647 0.595196 0.161184 0.198989 0.274564 -0.03874 0.202506 0.146048 0.004885 -0.343773 -0.032206 -0.100874 0.406942 0.651861 0.16146 0.002974 0.365921 -0.403431 -0.171941 -0.031046 -0.273621 -0.422787 0.273577 -0.162062 -0.215248 0.195157 -0.650634 -0.12445 0.401352 0.412193 0.233255 -0.058144 0.312398 0.022546 0.702343 0.157799 0.131315 -0.434525 0.07072 -0.691487 -0.139194 0.020142 -0.093905 -0.2399 0.278456 -0.483165 0.820532 0.176694 0.531662 -0.191724 0.100727 -0.050432 -0.363191 -0.288888 -0.502599 0.354892 0.590522 -0.015695 -0.067191 0.021248 0.247999 -0.329972 0.292594 -0.264969 -0.286757 0.811154 0.592108 -0.486479 0.184501 0.136724 -0.101532 -0.41977 0.270869 0.571178 0.359185 -0.187496 0.197293 -0.075285 -0.169221 0.131785 -0.504345 -0.411625 -0.087051 0.749432 -0.055404 -0.31949 0.159348 0.317595 -0.273063 -0.487299 -0.481706 0.016773 -0.646671 0.045238 0.078727 -0.286653 0.714034 0.473749 0.149228 -0.27773 -0.026823 -0.162778 -0.108306 0.123897 -0.236257 -0.036868 -0.018168 -0.226435 0.050553 -0.400569 -0.119539 -0.042145 -0.066148 0.284257 0.445763 -0.151626 -0.633092 -0.409195 0.138314 -0.196819 0.443749 0.562443 -0.106883 0.199896 0.183687 0.139034 -0.002662 0.306168 -0.362355 0.038894 -0.191555 -0.083712 -0.246525 0.261169 -0.246096 0.320467 -0.249191 0.136075 -0.084289 0.287607 -0.105322 0.063092 -0.062481 -0.339268 -0.043095 0.074574 -0.184873 0.417573 0.762064 -0.015972 0.015144 0.281738 0.062904 -0.195117 -0.219599 0.112129 0.336302 -0.061347 0.10417 -0.337903 -0.171597 0.123525 -0.039989 0.136389 -0.280061 0.19346 0.923435 -0.376771 -0.117507 0.105872 -0.198394 -0.128439 -0.040223 0.082182 0.115733 -0.136717 -0.608503 -0.319436 0.295421 -0.022878 0.261315 0.417779 -0.293743 0.383358 -0.464372 0.071468 -0.362384 -0.022672 0.500018 -0.234517 -0.232093 -0.026884 0.381768 -0.258187 -0.144036 -0.295425 -0.250912 0.239698 0.013031 -0.216624 -0.224731 0.263364 0.476273 -0.520547 -0.038936 -0.037536 0.245767 0.198682 0.144949 -0.054437 0.264885 -0.146404 0.08642 0.327914 0.296855 0.343388 -0.270651 -0.262472 -0.368747 0.145794 0.298006 -0.653662 0.023682 -0.396635 0.429517 0.014446 -0.40607 0.371132 -0.266744 -0.122262 5.4e-05 -0.194834 0.269596 -0.308453 -0.123103 -0.080454 0.305888 -0.10849 0.075975 -0.291555 -0.214253 0.248699 -0.263357 0.236867 -0.533219 -0.66478 -0.031263 -0.461096 -0.392043 0.033914 0.208707 0.146181 0.054704 -0.398998 0.061134 -0.503794 0.163626 -0.216745 0.001325 -0.203742 0.062602 -0.721352 -0.00864 0.141414 0.023475 0.183817 -0.156567 0.102232 -0.115671 0.182987 -0.5637 0.111121 0.034813 -0.188756 -0.411156 -0.034202 -0.138068 -0.006119 0.120233 0.18837 0.566278 -0.211376 0.568934 -0.407749 -0.450562 -0.438045 0.132845 0.303739 0.311444 0.040383 -0.191394 0.164406 -0.114871 0.597666 -0.01008 -0.207158
结果 -0.037412 -0.082958 0.123797 0.019712 -0.189816 -0.131606 -0.265976 -0.430017 0.066423 0.130428 0.072143 0.024263 0.213333 0.476548 -0.250197 -0.266396 0.206959 0.022441 -0.146849 -0.044934 -0.257447 -0.186927 -0.041992 0.016375 -0.393724 -0.018473 0.182821 -0.006753 -0.19746 -0.065158 0.079964 -0.120886 0.125923 0.212583 0.079036 -0.10765 0.265724 0.048314 -0.065012 -0.096483 0.261319 0.00159 -0.106851 -0.209806 -0.278453 -0.289778 0.238344 0.143624 -0.022227 -0.39167 0.317082 0.186265 -0.211709 -0.126263 0.076392 0.010166 -0.188072 -0.141615 -0.329889 0.311868 0.396836 0.003102 -0.486787 0.121113 -0.231036 0.069547 -0.078256 -0.008743 -0.164695 0.045271 0.054463 0.007876 -0.101266 -0.023624 0.001931 -0.321609 0.268876 0.048368 0.199944 0.154516 -0.109941 -0.062188 -0.231677 -0.143575 -0.146512 0.033393 0.070037 0.335608 0.012485 -0.307685 0.293097 0.049197 -0.176907 -0.10251 -0.055528 0.017439 -0.228509 -0.349405 0.028438 -0.306863 0.326076 0.237614 -0.10848 -0.054696 0.216121 -0.158124 -0.361363 0.100333 -0.34082 0.321703 -0.120843 0.144616 0.114977 -0.097615 0.004318 -0.080843 -0.10888 0.04821 0.145214 -0.243731 0.179393 0.07616 -0.229763 0.059556 0.124382 -0.011349 0.007133 0.444437 0.153613 0.408303 -0.145209 -0.222238 -0.405898 -0.036389 0.141603 0.334035 -0.180546 -0.056843 0.094512 -0.0929 0.305003 -0.096166 -0.005579 -0.08077 -0.39119 -0.043454 0.185112 -0.473263 -0.089822 -0.120596 -0.23719 0.243833 0.196919 0.160955 0.346716 -0.263973 0.045445 0.107762 -0.066063 -0.105727 0.040838 -0.393623 0.223136 -0.088413 -0.501164 0.232122 0.203736 0.141739 -0.03635 0.052643 0.07515 -0.272717 -0.225639 -0.002545 0.240033 -0.342968 0.009025 0.061689 0.03365 -0.122381 0.04404 -0.243695 0.074298 -0.088981 0.157177 0.274195 0.099906 0.133528 -0.034475 0.248714 -0.01585 -0.091278 0.42077 -0.027515 -0.276633 0.082787 -0.029243 -0.493683 -0.409864 -0.061384 -0.048295 0.134543 0.029988 -0.021835 -0.16501 -0.111306 0.451104 0.141865 0.271824 0.066415 0.190148 -0.006103 -0.193242 0.024557 -0.240881 0.085771 0.127767 0.046177 0.410179 -0.082484 -0.133572 -0.082581 -0.20769 0.372717 0.271401 -0.182603 -0.033184 -0.134485 0.320213 -0.256178 0.155198 0.419588 -0.069746 0.284015 0.024947 0.444653 0.487867 -0.356376 -0.117649 -0.043089 0.024305 0.197875 0.078388 0.202255 -0.16257 0.11511 -0.28663 0.187512 0.227043 -0.445238 0.189106 -0.287114 -0.317351 0.071722 0.023652 0.203516 0.26151 -0.244393 0.152577 -0.068761 0.007701 0.230986 -0.081314 0.132076 -0.015391 0.172912 0.176679 0.295768 0.266953 0.014264 -0.180521 0.498713 0.145735 -0.127455 0.022113 0.288134 -0.056393 -0.183518 0.183612 0.337282 0.350188 0.251857 -0.173076 -0.193399 0.190997 0.153536 0.19908 -0.045161 0.080354 -0.059581 -0.025321 0.435365 -0.107521 0.003349 -0.200838 0.136737 -0.340277 0.019199 0.143653 -0.265132
产业 0.899245 0.539141 0.311919 -0.485114 -0.081887 0.541628 0.190929 -0.052589 0.375885 -0.120889 0.408975 0.046332 -0.135539 0.096304 -0.197775 -0.248937 -0.398924 0.055898 0.401609 -0.045651 0.255513 0.056055 0.161743 -0.229456 -0.104782 -0.038129 -0.043025 0.179017 0.533675 0.368706 -0.353692 0.050367 0.167636 -0.008383 0.383016 -0.004293 -0.404668 0.329357 0.217428 -0.031884 0.403122 -0.151689 -0.212103 -0.412718 0.305705 -0.400725 -0.155968 -0.006202 -0.263704 0.165955 0.423332 -0.176318 0.02451 -0.491231 -0.170394 0.011673 0.483489 -0.249502 -0.047203 0.248604 0.442329 0.123085 0.203349 0.286679 0.045729 -0.014477 -0.305339 -0.251437 0.220896 0.194341 -0.61653 0.112761 -0.554192 -0.318151 -0.073894 -0.302817 0.402234 0.150221 -0.208112 -0.135755 -0.403502 -0.157396 -0.021579 -0.608764 -0.161686 -0.034935 -0.478292 0.000674 0.159368 0.382017 0.2343 -0.13322 -0.488033 -0.088244 0.04797 -0.386375 0.07146 0.119759 0.359422 -0.504969 0.296818 -0.309899 -0.206131 -0.103069 0.257633 -0.173577 0.120347 0.157759 -0.025989 0.893061 0.009763 -0.685875 0.240266 -0.170688 -0.135089 -0.229317 0.02584 0.65887 0.149702 -0.0646 0.074938 0.278532 0.1749 0.371942 -0.286917 0.157295 0.500111 0.054687 0.08509 0.224873 0.398322 0.065745 -0.015464 -0.14778 -0.165831 0.025211 0.123996 -0.419638 0.263152 0.034259 0.162737 0.522456 0.360158 -0.037387 -0.118781 0.024931 0.211555 -0.03448 0.052039 0.32203 0.01313 0.257637 -0.260999 -0.437347 -0.492786 -0.116802 -0.408094 -0.345943 -0.090413 0.10583 -0.503355 0.295935 0.234333 0.242703 0.035719 0.256299 -0.370237 0.094515 -0.250228 0.208985 0.055311 -0.014269 -0.057769 0.044803 0.068528 -0.364123 0.099408 -0.174405 0.142772 0.129207 0.030409 -0.219685 -0.283745 -0.139658 -0.279055 0.425763 -0.204236 0.360436 -0.041877 0.100522 0.330803 -0.258718 -0.163466 0.110201 0.088274 0.231959 0.136965 -0.373716 -0.10818 0.498742 0.092502 -0.072364 0.176897 0.272059 -0.123659 0.336993 0.050847 0.136834 -0.030992 -0.15746 0.220721 0.174331 -0.500501 -0.5026 0.175638 0.144988 -0.419889 -0.243601 -0.263943 -0.301192 -0.438176 -0.0441 0.202602 0.356248 0.055665 -0.247658 -0.523508 -0.025617 -0.031754 0.209986 0.097822 0.138362 -0.573201 -0.0391 0.006309 0.389314 0.400758 -0.440119 -0.225556 -0.232772 -0.012503 -0.240054 0.187998 0.184372 -0.07134 -0.1077 0.329692 0.335745 0.138943 0.151965 0.01225 -0.025981 -0.176401 0.051824 -0.119942 0.136364 -0.060727 -0.146947 0.54928 -0.104199 -0.037201 -0.51544 0.141175 0.434552 0.440519 0.204849 -0.205591 0.051359 -0.376969 0.598771 0.031484 -0.081224 -0.196338 0.197 0.031234 0.018168 0.160502 -0.34762 0.23542 -0.110616 -0.226992 0.197265 -0.057037 -0.787074 0.709676 -0.663962 -0.303721 -0.165335 -0.268579 0.062031 0.341107 0.498129 0.078077 -0.127522 -0.01786 0.087794 0.195456 0.262844 0.112182 0.107553
模式 0.405281 0.20291 0.110177 -0.011798 -0.194302 0.439414 0.117176 -0.320972 0.08972 0.324124 -0.049417 0.196392 0.119145 0.346911 -0.105578 -0.370453 0.405 -0.05898 0.048262 0.072788 0.013437 -0.358029 0.116087 0.264511 -0.0751 -0.33831 0.346826 0.463317 -0.372517 0.114454 0.176029 0.254764 0.150801 0.06295 0.012561 8.3e-05 -0.479595 0.281354 -0.052324 0.126457 -0.052936 -0.536399 -0.081603 -0.436991 0.121612 -0.332115 -0.173801 0.131377 -0.033974 -0.020321 0.275275 -0.039987 0.037561 -0.312484 -0.266424 -0.115787 -0.100102 -0.142484 0.312156 0.206853 -0.146456 -0.518879 -0.036235 0.112376 0.047976 -0.007813 -0.050872 0.094492 0.054204 -0.103661 -0.336564 0.306881 0.10935 -0.191438 0.230512 -0.195689 0.093882 0.342504 0.086977 0.198036 -0.095913 0.003345 -0.128256 -0.336209 -0.267967 -0.32771 -0.15779 -0.00637 -0.586871 0.087127 0.123352 -0.047036 -0.318215 -0.740562 -0.548749 -0.24523 -0.654767 -0.060595 0.320127 -0.243187 0.38099 0.259077 -0.281328 -0.051466 0.562579 -0.205305 0.295805 -0.075008 -0.023817 0.072423 -0.103889 0.09904 0.140305 0.243028 -0.22127 -0.441306 0.176491 0.177207 0.47675 -0.002642 0.005579 0.048736 0.509115 -0.072492 -0.465367 0.198057 -0.103376 -0.258836 0.655378 0.348562 0.354761 0.182073 -0.36291 -0.34812 -0.042009 -0.042527 -0.532691 0.011184 -0.319302 -0.166692 0.189573 -0.146577 -0.009776 0.006247 -0.301225 0.497397 0.205659 0.319482 0.267006 -0.137833 0.440816 0.679532 0.315746 0.019698 -0.334179 -0.34095 0.197935 -0.038653 -0.126097 0.211521 0.074709 -0.251608 0.300167 0.393511 -0.503009 0.067839 0.222036 0.225263 -0.211695 -0.122384 0.588226 -0.195936 -0.095349 0.197837 0.335663 -0.443468 -0.200966 -0.301453 -0.425526 0.151601 -0.620552 -0.413203 -0.06067 -0.385941 0.65902 -0.131764 -0.322658 0.468194 -0.030434 0.148327 -0.12659 0.080274 0.385455 0.081589 -0.118898 -0.417633 -0.04552 -0.116896 -0.458593 -0.129274 0.29305 0.341664 -0.044119 -0.145064 0.098378 -0.240865 0.15187 0.212713 0.274162 0.082467 0.339198 0.456656 0.049314 0.002723 -0.156175 -0.093545 0.064548 -0.026892 -0.074831 -0.402678 -0.182749 -0.588654 -0.283804 0.094781 -0.294974 0.023478 0.197486 0.107874 0.424449 -0.162196 0.186648 0.176241 -0.03889 0.038728 0.268282 0.455163 0.287708 -0.061246 0.234144 -0.094443 0.203297 -0.163956 0.008509 -0.321827 -0.296728 -0.110932 -0.237113 0.13845 -0.015473 -0.3894 -0.182426 -0.327638 -0.338654 -0.098195 0.434006 0.702821 0.22253 -0.614635 -0.129577 0.003769 -0.127248 -0.188897 0.152516 0.397288 0.219351 0.224486 -0.131721 -0.080011 -0.011695 -0.21357 0.202594 0.210616 -0.192103 0.141138 -0.020128 0.015049 -0.284225 0.115547 -0.000897 -0.220993 0.072332 -0.128031 0.446547 0.035802 0.331925 -0.049136 -0.570138 0.215142 -0.05408 -0.194477 -0.150798 -0.064743 0.413874 0.295959 -0.337332 0.169353 -0.072277 0.007689 0.060127 -0.027
亮点 0.532194 0.30593 0.253219 0.063396 0.050187 0.175021 0.078495 -0.013088 0.023391 -0.153768 0.350888 0.238662 0.189838 0.24058 -0.240602 -0.255353 0.04187 0.064094 0.105449 0.257911 0.200889 0.519155 -0.238914 0.061114 -0.089255 0.19104 0.271922 0.05719 0.217312 0.249865 0.057453 0.206816 0.153105 -0.016712 0.175737 0.139502 0.070791 0.545001 0.096429 -0.210596 0.021343 -0.02708 -0.131343 -0.455603 0.412297 -0.202553 -0.239734 -0.096877 0.013011 -0.225411 0.168544 0.334568 0.174511 0.138929 0.470134 -0.187374 0.024778 0.242733 0.192727 -0.374123 0.066232 0.012588 0.009619 0.08568 0.121583 -0.269479 0.089862 0.014822 0.241671 -0.043611 -0.250249 0.310724 -0.168551 -0.438765 -0.042319 -0.164329 0.145454 0.184982 -0.391535 -0.108988 -0.158118 -0.123574 0.441353 0.147831 -0.662392 -0.252466 0.041866 -0.346115 -0.33288 0.12518 0.091587 -0.266361 -0.622492 -0.231598 -0.117717 -0.018079 -0.387376 -0.026764 -0.008633 -0.405919 -0.09343 0.479646 -0.213814 -0.085562 0.142953 0.141285 0.276475 -0.285673 0.595367 0.387962 0.285782 0.518975 -0.109728 0.216704 -0.323289 0.027081 0.233106 0.414636 0.286042 0.449743 -0.113429 0.085811 0.043347 0.215392 -0.386516 -0.261602 0.149166 0.000877 0.12135 0.098877 0.05864 -0.003108 -0.168117 0.054027 0.038391 0.349251 0.417022 -0.046303 -0.069437 0.390435 0.05523 0.460911 0.034609 -0.417723 -0.358548 -0.02565 0.626451 -0.226555 0.133027 0.081399 -0.007676 0.168766 0.305789 -0.013565 0.039986 0.107254 -0.085546 -0.172067 0.123229 0.053714 -0.417903 0.20908 0.264811 -0.108319 -0.049139 0.335406 0.218919 0.267265 -0.06401 -0.132269 -0.098549 -0.198512 0.037857 0.169614 0.248488 -0.163108 -0.232492 -0.431696 -0.32444 0.559642 -0.888505 -0.092446 -0.292738 -0.403078 0.037469 -0.033524 -0.353109 0.352775 0.245308 0.334455 -0.09847 0.378536 0.148516 0.290023 0.089538 -0.05266 -0.080337 0.288974 -0.242668 -0.150161 0.009505 -0.003831 0.006658 -0.106096 -0.117333 -0.093527 0.200162 -0.316724 -0.077558 0.011508 0.019241 0.084914 -0.079421 -0.113012 0.131446 -0.248181 -0.334894 -0.218362 -0.227118 -0.079819 -0.006929 0.234783 -0.316443 0.310787 0.133963 -0.018742 0.09949 0.376769 0.382677 0.20042 0.21523 0.294236 -0.013737 0.18363 0.273216 0.149395 0.451222 -0.04115 -0.216917 -0.12352 0.088241 -0.148455 -0.064012 -0.102975 -0.402164 -0.140322 0.038849 -0.037745 -0.315546 -0.028223 0.099127 -0.199159 0.272789 -0.246387 -0.310754 0.047952 -0.052964 -0.04421 0.684621 -0.388729 0.158127 -0.156389 0.102515 -0.059548 -0.212286 0.165424 0.040767 -0.01598 -0.344087 -0.029083 0.029532 0.505891 -0.743167 -0.10786 0.013562 0.220898 0.144789 -0.169542 0.268403 0.069448 -0.540821 0.018501 -0.124191 -0.546483 0.131897 0.125295 -0.225963 -0.371946 -0.030801 -0.110175 0.096576 -0.098683 0.323338 0.240682 0.094044 0.3717 -0.313519 0.211033 0.019012 0.011987
素材 0.166261 0.244431 0.34347 -0.125789 -0.119398 0.157804 0.197714 -0.098219 -0.027635 0.028353 0.423183 0.294251 0.495433 0.162081 -0.442805 0.064064 0.353117 0.480192 -0.196852 0.12545 0.185064 -0.218146 0.187033 0.421084 -0.632685 0.034571 0.177602 0.568025 -0.001148 -0.358296 -0.469312 0.086829 0.451032 0.058038 -0.167191 -0.041049 -0.107275 0.120219 0.132317 0.014612 -0.027806 -0.262506 -0.587231 -0.493587 0.104298 -0.097772 0.114859 -0.208861 -0.423208 -0.154924 0.265524 0.712521 0.243089 0.043285 0.148069 -0.047965 0.040576 0.122489 -0.450031 0.175902 0.031773 -0.611432 0.304706 0.092065 -0.127774 0.331874 -0.251819 0.007698 -0.157407 -0.17301 -0.386561 -0.305586 -0.071344 -0.560534 -0.014471 -0.119677 -0.123166 -0.080234 0.377395 -0.600384 0.133483 -0.188702 0.099362 0.504828 -0.52149 0.106298 -0.167229 0.281397 0.221133 0.321871 0.015823 -0.654964 -0.296642 -0.023127 -0.158277 0.043958 -0.905673 -0.067721 0.076462 -0.304371 0.302378 0.330049 0.379434 -0.060388 0.114418 -0.340492 0.087487 0.106986 -0.069979 0.442328 -0.255066 -0.250846 0.043267 0.427273 0.028846 -0.037816 -0.198198 0.427448 0.788433 -0.414855 -0.309048 0.136027 0.110501 0.160704 -0.150062 0.349595 -0.163541 -0.218968 0.386634 -0.1223 0.045303 0.288578 -0.08301 -0.197627 -0.339003 0.305959 -0.359848 0.069489 -0.316947 0.335188 0.256043 0.54108 -0.42104 0.368316 -0.14477 0.221187 -0.277457 -0.179077 -0.224475 0.029103 0.396019 0.253134 0.317232 0.177576 0.526734 -0.14149 0.195442 0.117977 -0.002758 -0.218081 -0.15056 -0.282188 0.419751 -0.111573 -0.26328 0.592422 0.335431 0.516239 0.016393 0.055809 0.262464 -0.001361 -0.090724 0.092168 -0.205936 0.035022 -0.194353 -0.065721 -0.16797 -0.021097 -0.109881 -0.283242 -0.33125 -0.246492 -0.198373 0.335526 -0.159863 0.254075 0.179313 -0.046163 0.246765 -0.357194 0.30912 -0.212012 -0.058712 -0.064445 0.166382 0.095238 0.176016 0.410411 -0.415975 0.017625 -0.055465 0.196172 0.153903 0.072139 0.266793 0.256086 -0.464135 -0.222127 0.177045 -0.110633 0.296849 0.102379 0.198798 -0.532261 -0.161923 -0.514225 0.22814 0.211427 -0.398337 -0.751896 -0.518048 0.358458 0.377341 -0.281132 0.040842 -0.147216 0.511565 -0.464133 0.346035 -0.193589 0.226436 0.12045 -0.458014 -0.106992 0.24829 -0.252201 0.101782 -0.030022 0.055269 0.179524 0.096415 0.159368 -0.043097 0.293042 -0.129639 0.398206 -0.270322 -0.612906 -0.22102 0.269744 -0.52394 0.232985 0.013511 -0.021854 0.150788 -0.238652 0.431308 -0.592981 0.162214 -0.324418 -0.211413 -0.115488 -0.087563 0.214966 0.193885 0.089701 -0.126874 -0.374743 -0.344242 0.077342 -0.121756 -0.27697 -0.212242 -0.153155 -0.130239 0.039615 0.182618 0.019742 -0.138029 -0.050296 -0.048176 -0.450152 0.264732 0.641016 -0.245777 -0.126292 -0.269264 0.026842 0.051442 0.424292 0.144938 0.007845 -0.217874 0.248739 0.112637 0.195349 0.472722 -0.00642
开机 0.120107 0.268934 0.105891 -0.732878 -0.012745 0.109397 0.127987 0.384983 -0.191382 0.083555 0.604035 0.305426 0.118372 0.519033 -0.229572 0.151405 0.284088 0.118271 0.435148 0.399789 -0.154239 -0.848827 -0.142862 0.072751 -0.186296 0.352307 0.241052 0.502642 0.680642 0.228894 0.433108 -0.065548 -0.104554 0.103467 0.442657 -0.114031 -0.048746 0.457435 0.627769 -0.139939 0.502417 -0.139452 -0.325001 -0.138665 0.154316 -0.408302 -0.506 -0.258222 0.279699 -0.676257 -0.176149 0.114708 -0.031705 0.399439 -0.41794 -0.086745 -0.342095 0.375531 -0.507185 0.028065 -0.146121 -0.197942 0.637618 -0.94556 0.258343 0.237001 -0.116094 -0.133497 -0.328879 -0.013941 -0.376141 0.06254 -0.091533 0.229644 -0.049914 -0.177584 0.238738 0.454302 0.179614 -0.184346 -0.195066 0.013953 0.227172 -0.380213 -0.1955 -0.13889 0.152672 0.374016 -0.553875 -0.209722 0.135731 -0.39205 -0.180198 -0.298785 0.079492 0.038278 -0.529002 0.453714 0.201381 -0.148838 0.182383 0.433893 -0.25496 -0.344201 0.094466 0.41584 -0.085318 -0.219726 0.553784 0.289564 -0.017732 0.291929 0.108159 -0.288319 0.143217 -0.350535 0.175274 0.239021 -0.069666 0.104625 -0.205788 -0.107339 0.079429 0.225864 -0.904532 0.509988 -0.050851 0.068699 0.261973 -0.028679 0.275197 0.077949 -0.673035 -0.615653 0.190535 0.39553 -0.3184 -0.121136 -0.430184 -0.093232 0.53769 -0.200091 -0.120762 0.038986 -0.552222 0.392862 0.175868 0.385159 -0.028831 0.390829 -0.295274 -0.118118 0.386157 -0.067502 -0.192202 -0.076884 0.105329 0.218979 0.398911 0.289215 0.174145 0.260312 0.148493 0.025648 -0.615851 0.116587 0.113731 0.894298 -0.149563 0.050174 0.415298 -0.071228 0.312161 0.621596 0.390982 -0.122673 -0.498358 0.780098 0.479744 0.05817 -0.868748 -0.334389 0.02555 -0.167888 0.248283 -0.13645 0.184115 0.409084 0.445966 0.63644 -0.37404 0.032845 0.236575 -0.178713 0.143173 -0.669161 0.153202 0.296875 -0.82161 0.350624 0.545483 0.688032 -0.440983 0.131104 0.388123 0.215195 0.126476 0.039357 0.253091 0.340421 -0.191206 0.354247 -0.105939 -0.099117 -0.142132 -0.186527 -0.13165 -0.04337 -0.102483 -0.496864 0.071777 -0.665667 -0.480155 0.14552 0.119943 0.007384 0.19861 0.129548 0.187773 0.036664 -0.387654 -0.025677 -0.521824 -0.394528 0.331377 0.104036 0.316922 -0.19749 -0.119406 0.172473 -0.053293 -0.097748 -0.647243 -0.079906 0.090327 0.3062 -0.259551 -0.410101 -0.575106 0.006801 -0.477028 -0.627476 -0.341478 -0.100737 -0.107348 0.680688 -0.29746 0.097745 0.315185 -0.345966 0.055362 -0.207211 0.388737 0.118935 -0.469753 -0.246258 0.531754 -0.533046 -0.083104 -0.020603 0.220204 0.354323 -0.23404 0.289928 0.245351 0.264981 -0.349895 0.053144 -0.080474 0.148271 -0.078242 0.210251 -0.221908 -0.092543 -0.030954 -0.042212 -0.522386 0.289 0.198497 0.167519 -0.280234 0.091127 0.165465 0.082439 -0.367831 -0.280362 0.585067 0.221934 0.121821 0.143287
方法 0.123749 -0.013824 -0.008065 -0.179146 -0.113477 0.185118 0.043296 -0.254689 0.298232 0.12033 0.04633 0.113574 -0.017673 -0.009816 -0.240573 -0.229606 0.250071 0.028028 -0.267797 -0.072437 0.239471 -0.024969 0.041376 -0.20794 -0.280955 -0.098999 0.073273 0.255435 0.038612 -0.083732 0.382355 0.17216 0.144198 0.085376 0.44489 -0.01908 -0.085214 -0.20052 0.265049 0.187528 -0.183817 -0.329232 0.069557 0.01324 0.22587 -0.331987 0.19029 -0.298885 0.208853 0.060742 0.277081 0.247884 -0.113645 -0.321712 0.018687 0.234903 -0.336959 0.082815 -0.236087 0.380838 0.350486 -0.258171 0.059428 -0.092103 0.082552 -0.181537 -0.370587 -0.017161 -0.111975 0.083995 -0.20869 -0.081668 0.058876 0.133289 0.180907 -0.033222 0.493067 0.13533 0.287414 -0.197421 0.104569 -0.016019 -0.038093 -0.041538 -0.176183 -0.20174 0.046206 0.244497 0.330597 0.108209 0.024172 -0.030358 -0.385291 -0.501376 -0.074931 0.090453 -0.331263 -0.489065 0.54688 -0.395302 -0.069487 0.210218 0.198681 -0.025316 0.131794 -0.051715 0.075012 0.072548 0.122014 0.552536 -0.046448 0.210514 0.114397 0.038722 0.251565 -0.29095 0.005043 0.124143 0.497766 0.041461 -0.110278 0.414267 0.473094 -0.234873 0.020323 0.244793 -0.140232 0.360008 0.385532 0.397832 -0.346492 0.085476 -0.134614 -0.0108 -0.094225 0.153387 -0.072695 0.060952 -0.289952 -0.126952 -0.058681 -0.238838 -0.404692 0.047776 -0.087217 0.251546 0.208056 -0.151707 0.014941 -0.275936 0.143616 0.588868 0.378456 0.187395 0.252037 0.003299 0.068611 -0.193612 0.04811 -0.516689 0.010525 -0.235847 0.091905 0.082462 -0.233383 0.013436 0.185396 0.079839 -0.151011 -0.037594 0.797231 -0.456814 -0.162946 0.011644 -0.129246 -0.302167 0.148068 -0.233971 -0.029702 0.216052 0.074104 -0.073944 -0.181848 -0.340923 0.094386 0.388623 0.030929 0.549506 0.095704 0.24657 0.048116 -0.004905 0.025271 0.014315 -0.177085 -0.363382 -0.06633 -0.206762 -0.372941 -0.019083 -0.037106 0.25897 0.038524 -0.100589 0.002246 0.037233 0.150668 -0.302621 -0.268057 -0.293126 0.478164 0.388767 0.316852 -0.233568 -0.061855 -0.42775 -0.275734 0.382669 0.153988 -0.30054 -0.128812 -0.27159 -0.303112 0.019479 0.031769 -0.17293 -0.042154 -0.457102 0.309654 -0.107947 0.280656 0.149635 -0.351502 0.076064 0.12163 0.179315 0.519055 -0.210565 -0.07927 -0.052779 -0.178586 0.004143 -0.010287 -0.105261 -0.239741 -0.277057 -0.111951 -0.224383 -0.124994 -0.33539 -0.120457 -0.151798 -0.352487 -0.100457 0.350509 0.063996 -0.232162 -0.3392 0.193146 0.185448 -0.0971 0.036208 0.316972 0.121342 0.110756 -0.229382 0.065881 -0.028284 -0.074184 0.13397 -0.092313 0.733981 -0.197801 -0.016918 0.007359 0.540908 -0.373486 -0.118742 0.007622 0.054806 0.31991 -0.11411 0.13438 0.037905 0.390049 0.341781 0.158756 -0.105837 -0.222707 -0.040763 0.08606 0.368984 -0.079074 0.239817 -0.316685 0.286336 0.041382 0.176368 -0.027689 -0.440089
基本 0.298451 0.061545 0.218048 -0.173814 -0.414439 -0.006459 -0.10874 -0.34946 0.034548 0.025722 -0.089174 0.415764 -0.058724 -0.448812 -0.184797 0.016845 -0.205056 0.321239 0.066865 -0.120163 -0.119741 -0.477173 0.073471 0.192953 -0.269488 -0.033752 0.230056 0.565166 0.113276 0.0134 -0.139109 0.246894 0.102629 0.300939 0.283098 0.071026 -0.691322 0.255807 -0.088354 -0.262071 -0.025996 0.052306 0.006766 -0.400294 0.030822 -0.624715 -0.537926 0.135539 0.204572 -0.355374 0.34979 0.509725 -0.015652 -0.28462 -0.147291 -0.239594 -0.156132 0.147429 0.006561 -0.02889 0.182606 -0.727782 0.359039 0.182829 0.288464 -0.367999 -0.204358 -0.035006 0.134583 0.560649 -0.16306 -0.359583 -0.100915 0.20822 -0.166379 -0.389891 0.2068 0.014057 0.060799 0.030937 0.435544 -0.08618 0.02399 0.092834 -0.27983 -0.309707 -0.010146 0.077034 0.063175 -0.146307 -0.195224 0.22946 -0.382812 -0.084768 0.00604 -0.085624 0.106328 -0.09385 0.082657 0.376144 -0.361605 0.017014 0.310892 -0.094249 0.151705 -0.26141 -0.06297 -0.343113 -0.332629 0.430856 0.043988 0.03537 -0.241754 -0.049278 0.175171 -0.217896 -0.140067 -0.068416 0.547 0.532224 -0.451856 0.004862 -0.000519 -0.062781 0.080194 0.473051 0.270414 0.180794 0.446057 0.30666 -0.110947 0.017297 -0.256877 -0.338691 -0.107924 -0.006115 -0.081632 0.064957 -0.086084 -0.053512 -0.133806 0.238847 -0.103105 -0.130548 0.224647 0.381378 0.215037 -0.147931 0.164818 0.002282 0.016746 0.166936 0.139053 -0.158379 0.141294 0.031847 -0.2474 -0.24671 0.235215 -0.271121 -0.230243 -0.192255 0.411818 -0.037779 -0.039684 0.098788 0.256111 0.266014 0.306317 0.021175 0.741403 0.072864 -0.047596 0.136623 -0.210967 -0.31816 0.178514 -0.273542 -0.14395 -0.066696 -0.232652 -0.275317 -0.66487 -0.33343 0.157139 0.011057 0.116995 0.369454 0.3309 0.56411 0.298637 0.236578 -0.040475 0.148643 -0.094003 -0.648617 0.1462 -0.110301 -0.46682 -0.222907 0.250432 0.201149 -0.088792 -0.0614 -0.273808 -0.1102 -0.122392 -0.216556 0.125452 -0.44715 0.077333 0.555594 -0.127505 -0.335416 0.001774 0.055289 -0.269032 -0.147888 -0.242381 0.212037 -0.403695 -0.303455 0.153993 -0.110825 0.072993 0.012944 0.279276 -0.375687 0.099779 -0.23939 0.248124 0.532736 -0.387267 -0.144961 0.115556 -0.124404 0.128387 0.149577 0.07117 0.252947 0.167858 -0.165677 0.078565 -0.536411 0.074309 -0.158686 0.079216 0.240191 -0.116162 -0.180535 -0.185028 -0.033297 0.208285 -0.091294 0.01329 0.141125 -0.556408 0.163389 0.415044 0.130722 0.095812 -0.163454 0.079566 -0.012165 0.113668 0.265065 -0.076846 0.005056 0.030336 0.459318 -0.069125 0.523187 0.079677 0.068202 0.269198 0.38859 -0.336409 -0.172997 -0.185613 0.255234 0.149663 -0.23677 -0.135823 -0.277591 0.112089 0.152127 -0.077302 0.056221 0.112282 -0.211646 -0.271281 0.211784 0.233049 -0.081635 0.089201 -0.130063 -0.239373 -0.114365 0.417979 0.076189
光盘 0.507078 0.304143 0.131126 -0.045673 -0.093163 0.397509 0.064063 0.159747 0.102069 0.15667 0.293659 0.291326 -0.088623 0.281969 -0.435167 0.195602 0.393036 -0.146451 -0.281183 -0.076573 0.582347 -0.548724 0.420624 0.236362 -0.480457 0.042984 0.336756 0.654378 0.237818 0.143155 -0.220115 -0.081392 -0.481931 -0.315226 0.24027 0.039615 -0.110107 0.589991 0.316117 -0.056518 0.384957 -0.299365 0.018474 -0.254541 0.492751 -0.036297 -0.203038 -0.538278 -0.311613 -0.172389 -0.485474 0.26547 0.364695 -0.394833 0.034939 -0.306523 -0.498133 0.013669 0.03679 -0.095357 0.087168 -0.296641 0.237806 -0.165074 0.32631 0.011727 0.431402 0.095602 -0.735874 -0.086057 -0.150626 -0.482407 0.377265 0.052264 0.455926 -0.25349 0.253919 0.632115 0.34136 -0.241732 0.265264 0.279695 -0.458557 -0.389538 -0.478755 0.087478 0.082043 0.042427 -0.330707 0.090234 0.387864 0.097193 -0.534315 -0.189 -0.126026 -0.119263 -0.796677 0.387624 0.079911 0.018297 0.417574 0.310717 -0.034743 -0.793965 0.021615 0.253505 0.168961 -0.288927 0.147024 0.503353 -0.211329 0.106474 -0.398873 -0.059007 0.066425 0.052158 0.230666 0.049436 0.488252 0.351488 -0.510162 -0.673633 0.223227 0.31288 0.110379 0.15501 -0.090022 0.137101 0.135569 0.200476 0.014842 0.437928 -0.30526 -0.286755 0.082158 0.157714 -0.503182 0.22792 -0.593258 0.380665 0.181286 -0.284798 -0.121145 -0.138159 0.145796 0.352484 -0.017754 -0.380284 -0.701295 0.667939 -0.584612 0.075997 0.576063 0.312365 0.390556 -0.187839 -0.174539 -0.267659 0.160735 -0.4019 -0.145043 0.066403 -0.134246 0.306146 -0.163053 0.643746 -0.203376 -0.232612 -0.739968 0.797961 0.143695 0.0991 0.260621 -0.24067 -0.268835 -0.009138 -0.476855 -0.295161 -0.307842 -0.187425 -0.548618 -0.471669 -0.099714 0.305489 0.170992 0.214469 -0.179579 0.590323 -0.017847 -0.129055 -0.681113 -0.411869 0.262684 -0.344906 -0.244384 0.319409 0.773298 0.066178 -0.698535 -0.129126 -0.325209 0.452261 -0.190504 -0.258697 0.329436 0.000236 -0.250957 0.249321 0.125542 -0.128616 0.221351 0.512551 -0.054877 -0.180194 -0.17202 -0.177031 -0.106633 0.082314 0.421791 0.084931 -0.692996 -0.047515 -0.857837 0.391361 -0.11327 -0.117279 0.547679 -0.196513 -0.169549 -0.544529 -0.259063 -0.16629 -0.25758 -0.82232 -0.227794 -0.12076 0.08283 -0.105755 -0.076391 0.226083 -0.362791 0.164783 -0.02058 -0.015147 -0.199703 0.182346 0.126045 -0.132076 0.141646 0.020152 0.066844 -0.38504 -0.06251 -0.286105 0.178559 0.395197 0.153404 -0.200641 0.170131 -0.459865 0.361784 -0.098192 -0.27792 -0.010561 0.235024 0.309954 0.24325 0.206783 -0.770039 0.090239 -0.265277 0.171908 -0.30008 -0.138452 -0.004331 -0.52464 -0.567846 -0.268111 -0.160624 -0.040119 0.032579 0.342363 -0.095475 -0.550353 0.497465 0.232453 -0.106648 -0.492336 0.020493 -0.257834 -0.315113 0.198681 -0.171864 -0.38745 -0.152518 -0.241521 -0.629337 0.208724 0.347237 -0.19272
效果 0.378013 0.278682 0.105653 -0.441627 -0.099601 0.046749 0.496592 -0.229135 -0.216657 0.185438 0.505785 0.318183 0.109558 -0.21279 -0.019386 -0.55768 0.237123 0.145577 -0.047792 0.030238 0.195092 -0.349641 -0.058219 0.043269 -0.50499 0.021366 0.339364 0.056465 -0.073043 0.319778 -0.113285 0.037799 -0.397199 -0.237141 0.292853 0.005688 0.243359 0.213881 0.21647 -0.012494 -0.008681 -0.395744 -0.283957 -0.393766 0.314184 -0.489699 0.613037 0.093529 -0.522032 0.096936 0.483343 0.676208 -0.289247 -0.379786 0.053633 0.188636 -0.162895 0.264652 0.107032 0.119203 0.095527 -0.53653 0.076612 0.221923 0.148201 -0.065417 -0.244611 0.333144 0.033076 0.031515 0.008372 0.258306 0.090507 -0.036439 0.013053 -0.393711 -0.233681 0.011862 0.172176 0.059467 -0.017248 0.238368 -0.015568 0.224782 -0.041706 -0.003056 -0.178833 0.083685 0.217762 -0.115519 0.1646 -0.05115 -0.259118 -0.446613 -0.152347 0.057789 -0.467211 0.115133 0.716437 -0.264225 0.187254 0.480964 0.156196 -0.013079 0.498911 0.329894 -0.175111 0.103012 0.10185 0.053018 -0.471373 0.198036 0.13146 0.414468 0.47862 -0.380369 -0.212174 0.418747 0.253024 0.364152 -0.110166 0.255272 0.287594 -0.077685 0.274243 -0.232089 -0.08127 0.38161 0.207593 0.303347 0.248928 0.132694 -0.3999 0.036725 -0.267216 0.591418 -0.438574 -0.044978 -0.134977 -0.043735 0.319376 -0.24774 -0.118842 -0.311173 -0.050992 0.160686 0.244901 -0.151991 0.149592 -0.047145 -0.068681 0.606277 0.316449 0.184601 -0.030559 -0.382041 0.192967 0.362032 0.084963 -0.011427 0.342698 0.015537 0.21874 -0.166847 -0.263145 0.423488 0.308079 -0.035651 -0.318453 0.070866 0.565652 -0.233999 -0.59901 0.072401 0.197082 -0.212315 -0.010252 -0.176399 -0.101242 -0.013701 -0.095097 0.078684 -0.318307 -0.32289 0.222427 0.160286 -0.119882 0.56121 0.130226 0.347272 -0.006571 -0.365443 0.240564 0.130218 0.076023 -0.13922 -0.196701 -0.033325 -0.285002 0.034912 -0.104787 -0.015616 0.407603 0.262357 -0.041058 0.159064 0.126663 0.088553 -0.057452 -0.406697 0.162967 0.028487 0.033658 -0.212637 -0.026322 -0.489761 0.098458 0.02786 0.22233 0.225343 0.088855 -0.488682 -0.309466 0.073177 0.269363 -0.207604 -0.109184 0.334374 0.143564 -0.066307 0.045579 -0.150094 0.363811 0.099413 0.161444 -0.029927 0.779587 -0.086865 0.068901 0.023124 0.114842 0.145016 -0.225461 0.246756 -0.576276 -0.097615 -0.223455 0.429847 -0.113054 -0.434917 -0.041856 -0.222567 -0.469348 -0.128856 0.297621 0.42058 0.014863 -0.11156 0.354862 -0.265026 0.326191 0.085534 0.306555 -0.183952 0.275192 -0.017975 0.081545 -0.074078 -0.112279 -0.102184 0.279643 0.665968 -0.216532 -0.168162 0.183261 0.015333 -0.051878 0.178232 -0.344358 0.006846 0.087767 -0.185828 0.062826 -0.414229 0.242381 0.135245 0.064596 0.005736 0.045271 -0.189901 -0.020685 0.561096 0.639542 0.456781 -0.722027 -0.114841 -0.000213 -0.190493 -0.094671 -0.225678
编辑 0.541207 0.134264 0.326818 -0.350249 -0.320115 -0.036002 0.113368 0.160268 -0.141221 0.113563 0.184452 -0.230586 0.272975 0.063349 -0.471991 0.074816 -0.226242 0.417526 -0.434335 0.109035 0.105113 -0.306438 0.290055 0.109141 -0.542691 -0.094419 0.433063 0.169037 0.16067 0.079251 -0.219355 0.323729 0.375905 0.054653 0.349422 -0.032858 -0.200829 0.395188 0.502111 0.192627 -0.076894 -0.33265 -0.115676 -0.486881 0.129869 0.009348 -0.065426 -0.364663 -0.130166 -0.245517 0.451517 0.292295 -0.218998 0.018981 -0.295209 -0.195623 -0.239139 -0.388238 -0.349166 0.407997 0.00717 -0.133834 -0.185674 -0.05666 0.464929 -0.168396 0.08112 -0.079879 -0.081467 -0.195562 0.189505 -0.080007 0.203107 0.084165 -0.029436 -0.202962 0.312684 -0.290443 0.117882 -0.046245 -0.103274 -0.015511 -0.06406 -0.025628 -0.814781 -0.149531 0.102775 0.195042 -0.172033 -0.049032 0.312924 -0.042158 -0.424803 -0.168157 0.144955 0.083143 -0.457161 0.201035 0.172814 -0.048193 0.049908 -0.637783 -0.163699 -0.25476 0.06284 -0.073831 -0.264833 -0.395861 -0.598465 0.282426 -0.041997 0.198141 -0.190389 -0.237159 0.160328 0.116802 -0.093975 -0.115827 0.57331 0.051137 -0.1475 -0.196062 -0.010974 -0.129755 0.028399 0.209963 -0.371634 0.187212 -0.081516 -0.003721 0.026942 0.361313 -0.248373 -0.16389 -0.146473 -0.000306 -0.41212 -0.074956 0.168652 -0.182549 -0.031993 0.316212 -0.229807 0.13056 -0.405135 0.153373 -0.137595 -0.002419 -0.068652 0.240477 0.206572 0.537488 0.337123 0.024416 0.254157 0.323695 -0.013921 -0.08282 0.057011 0.143344 -0.233121 0.044378 0.545958 -0.017057 -0.15856 0.133604 0.326109 0.396492 -0.193705 0.303219 0.080401 -0.052524 0.420136 0.382155 -0.016472 0.404101 -0.388848 0.284534 -0.398668 0.025643 -0.192036 -0.067402 -0.023226 0.239319 0.22243 -0.100768 0.24482 0.458804 -0.071645 0.077703 -0.266674 -0.27385 -0.334243 -0.103966 -0.491186 0.19729 -0.028327 -0.11307 -0.177137 -0.114449 -0.322619 -0.190125 -0.264629 0.006905 -0.095457 -0.204519 -0.315969 0.293258 -0.139885 -0.551474 0.267237 0.56185 0.259659 -0.082153 0.0671 -0.239389 -0.355917 -0.133051 0.490054 -0.138085 -0.33124 -0.537023 -0.209094 0.145341 -0.262739 -0.313967 0.010754 -0.233485 -0.058523 -0.049163 -0.319321 0.071325 -0.351287 -0.312832 0.158205 0.159963 0.235141 0.011386 0.241047 0.217598 0.07368 0.05345 0.384079 -0.129363 -0.284554 0.030601 -0.271834 -0.186763 0.069695 -0.529535 0.15035 -0.165785 -0.364007 -0.104267 0.056166 -0.191386 -0.267565 0.098815 0.366926 -0.424817 0.108917 -0.445312 -0.159008 0.313265 0.410809 -0.116371 0.335988 0.116488 -0.117566 0.126422 -0.040631 0.239867 -0.143479 0.41463 0.178842 0.236414 -0.156407 -0.083551 -0.260333 -0.045183 -0.058789 -0.075016 -0.258883 -0.413296 0.388946 0.708157 -0.319875 0.065284 -0.120959 0.115637 -0.465546 0.206374 0.125366 0.184106 0.124996 0.478132 0.222573 0.751229 0.245055 0.332926
字符 0.483634 -0.539983 0.32477 0.214592 -0.289557 0.097253 0.587058 -0.425578 0.282568 0.355698 0.21055 0.283653 -0.074643 0.069878 0.650177 -0.318817 0.081621 0.305602 0.298578 0.394929 0.349111 -0.368264 -0.008284 0.02435 -0.423147 0.104167 0.752642 0.229794 0.119989 0.145511 0.000826 0.435416 0.081323 -0.043069 0.81279 -0.197696 0.433727 -0.209465 -0.099621 -0.315591 0.046656 -0.291899 -0.009828 -0.204702 0.049876 -0.452117 -0.209973 -0.215761 0.301291 -0.316269 -0.192924 0.151258 0.256387 -0.014674 -0.133147 -0.280222 0.172579 -0.341696 -0.28467 -0.218342 0.404992 0.274543 0.247793 0.007229 -0.27678 -0.324707 0.252886 0.263488 -0.258534 0.53439 0.2231 -0.115976 0.089441 -0.114939 -0.003187 -0.059034 0.911512 0.549924 0.174283 -0.900624 0.32533 0.031552 -0.269938 0.354965 -0.511914 -0.107355 -0.086947 0.013996 -0.471487 -0.291245 0.981609 0.378318 0.019289 0.101943 -0.254119 -0.299364 -0.430912 -0.205994 -0.213027 -0.3423 0.399319 0.061825 -0.452427 -0.726927 0.352009 -0.088751 -0.539084 -0.460593 -0.283543 0.015767 0.409503 -0.048162 0.195578 -0.293966 -0.053944 -0.270821 -0.04158 0.367512 0.448079 -0.305059 -0.827569 -0.233506 0.011446 0.04924 0.147197 0.254119 0.387114 -0.413775 0.287392 -0.054626 0.23178 -0.015538 0.022454 -0.195852 -0.069135 0.159983 -0.048685 0.377099 -0.60844 0.076918 -0.02799 -0.427842 -0.034171 0.318957 -0.1567 0.693951 0.073883 -0.083091 -0.145364 0.308125 -0.262405 0.24365 0.794759 -0.295852 0.401591 0.195159 0.277156 -0.118599 -0.043605 0.015086 -0.217944 0.239798 -0.171286 0.263743 -0.207976 -0.051654 -0.041984 0.276725 -0.140566 0.432248 0.071359 0.356804 -0.358876 0.368648 0.047629 -0.404633 0.022571 -0.279923 0.305103 0.175297 -0.677257 -0.12879 0.091862 0.172277 0.081223 -0.087895 0.16674 0.425635 -0.437223 0.216568 -0.020943 0.085088 0.485995 -0.741232 -0.419456 -0.37577 0.413587 -0.825277 -0.485955 -0.216182 -0.024847 0.269732 0.063971 0.077173 0.165233 0.210879 0.213953 0.290958 0.044753 -0.305185 0.5393 0.456803 0.057949 -0.006191 -0.072991 0.248918 0.082695 0.154153 -0.068888 0.186471 -0.226891 -0.549567 -0.438902 0.143753 0.15629 -0.993808 -0.191268 -0.384766 0.403425 0.052046 0.135846 -0.196005 -0.075996 0.048619 -0.095354 0.2719 0.062713 -0.120631 -0.497614 -0.209411 0.298495 -0.292514 -0.684208 0.370731 0.152477 0.380359 0.242853 0.282355 -0.616814 -0.300323 -0.279338 -0.085978 0.024571 0.053202 0.305407 -0.068215 -0.319068 -0.249649 0.3616 -0.51057 0.252426 -0.089106 0.094609 -0.042612 0.017956 -0.159602 0.204479 0.085728 -0.007656 0.303388 0.083216 0.057153 -0.254942 -0.21948 -0.043333 -0.452012 -0.119576 0.073005 0.122123 0.379561 -0.331629 -0.107376 -0.055982 -0.268098 0.74962 0.423486 0.676653 -0.134127 -0.008156 0.111051 -0.127373 -0.22648 -0.290841 0.454149 -0.089743 0.147502 0.241304 0.303596 0.055778 0.281789
装置 0.142574 0.268606 -0.145431 -0.323013 -0.174705 0.347532 -0.041727 -0.365935 0.075198 -0.015658 -0.246479 0.228286 0.516762 0.148978 0.288228 -0.347993 0.086969 -0.229117 -0.206579 0.122532 0.053971 -0.225337 -0.558036 -0.055034 -0.195475 -0.323405 -0.045208 0.31009 0.102094 -0.070266 -0.518013 0.388463 -0.188361 0.052173 0.210734 0.198058 0.029373 0.276719 0.327685 0.038926 -0.030194 -0.210847 0.007975 -0.408671 0.337524 -0.246491 -0.093024 -0.142878 -0.601792 5.5e-05 0.368408 -0.021307 -0.273291 -0.286169 -0.165603 -0.06615 -0.019072 0.050594 0.209816 -0.02471 -0.06957 -0.488948 0.494721 0.417837 0.019454 -0.109851 0.017189 0.173288 -0.014617 -0.041895 0.12733 -0.130941 -0.197297 0.141287 0.342245 0.045308 0.273216 0.141932 0.436436 -0.211717 -0.254606 0.035083 0.003514 -0.421624 -0.177053 0.090244 -0.107535 -0.18025 0.152108 -0.23667 -0.069463 0.217849 -0.283762 -0.336184 -0.291428 0.075177 -0.155972 -0.644045 0.363859 -0.170939 0.199802 0.107379 -0.255336 -0.300009 0.300974 0.381036 0.401915 0.119246 0.359318 0.283992 0.269029 0.401927 -0.124397 -0.142933 -0.219713 -0.420828 0.184092 0.216393 0.349943 -0.023547 -0.308958 -0.011339 0.563628 -0.053397 -0.216987 0.164015 0.171069 0.005207 0.599646 0.136522 0.086159 0.428371 -0.082824 -0.289538 -0.381136 0.877883 0.245973 0.325636 -0.463222 -0.373944 -0.053468 -0.636924 0.310111 -0.143948 -0.365832 0.025015 0.135136 -0.293058 0.038447 0.049158 -0.145047 0.149051 0.238679 0.031061 -0.007464 -0.118903 0.047575 -0.016776 0.409838 -0.257638 -0.188657 -0.146749 0.204919 -0.264846 -0.378915 0.044248 0.37409 0.376635 -0.141684 0.390537 0.880068 -0.270071 -0.461461 -0.13796 0.300032 -0.103776 -0.244964 -0.086477 0.163493 -0.062794 0.130233 -0.290265 -0.206351 -0.167368 0.340666 0.254759 -0.171206 0.193359 -0.051275 0.263178 -0.16134 -0.203171 0.19522 -0.31522 -0.359236 -0.048682 -0.105607 0.069603 -0.412304 0.356745 0.030402 0.41008 0.365616 0.192805 -0.340958 -0.368137 0.200636 0.06452 -0.005242 -0.081947 0.406053 0.224851 0.048894 -0.022742 -0.053779 -0.116837 -0.331392 -0.036955 -0.253671 -0.210026 -0.004649 -0.076713 -0.398738 -0.06809 0.131133 -0.332186 -0.362886 0.301021 -0.127623 0.005716 0.425136 -0.087531 -0.62449 0.213311 0.383469 0.269924 0.152556 -0.399468 -0.427521 -0.180435 -0.178316 0.074108 -0.531992 0.074497 0.004818 -0.084032 0.029547 -0.408112 -0.48237 -0.225031 -0.254433 -0.41155 -0.52598 -0.101204 0.223242 -0.075945 -0.445822 0.33488 0.384982 0.04653 0.149802 0.246369 0.1853 0.445361 0.392214 -0.094937 -0.15462 -0.327547 -0.047722 0.088945 0.017695 0.237399 0.164917 -0.049872 -0.10675 0.05305 -0.387362 0.081501 -0.11966 0.137231 0.2928 0.15505 0.073856 -0.172939 0.092647 0.144086 -0.109667 0.002353 0.101076 -0.314163 -0.034667 0.332679 -0.170314 0.166595 -0.482226 -0.093972 -0.128331 0.412824 0.004047 -0.069467
智能 0.082512 -0.063355 0.034015 0.169885 -0.257906 -0.115238 0.222277 -0.225446 0.170738 -0.000621 0.127619 0.141817 0.738821 -0.12793 0.116291 -0.542473 0.210108 -0.174762 0.166088 -0.139462 0.229554 -0.288493 0.233937 0.386865 0.024071 0.056842 0.294072 0.207085 0.446182 0.484672 0.120088 -0.209677 0.443338 -0.028802 0.493502 0.10405 0.032707 0.004406 0.458838 -0.150229 -0.231121 -0.411458 0.327082 -0.316446 0.403594 -0.369559 0.231197 -0.048371 -0.375071 -0.216882 0.461568 -0.385378 -0.230387 -0.070021 0.485446 -0.15883 0.341908 -0.172337 -0.245801 0.044287 0.125634 -0.241222 0.429691 0.314264 0.406909 -0.098593 0.496679 0.330325 0.047964 0.215932 -0.24988 0.071579 0.07178 0.224024 0.194046 -0.200864 0.433265 0.310296 -0.149982 -0.414601 -0.397258 -0.410139 0.133482 -0.256013 -0.461209 0.133042 -0.226651 0.563338 0.040254 -0.303307 0.197327 0.047965 -0.379237 -0.504469 -0.053933 0.0721 -0.44876 -0.246422 0.548317 -0.319099 0.338855 0.427216 -0.488666 0.003656 0.20597 0.247191 0.219653 0.131388 0.131356 0.204889 0.17791 0.049147 -0.253364 0.101079 0.218709 -0.535801 0.140229 0.081046 0.047796 0.092243 -0.379126 0.131079 0.33341 0.082343 -0.256743 0.409627 -0.440941 0.210817 0.351909 0.025265 -0.067087 0.055927 0.024832 -0.705619 -0.166031 0.058078 -0.043413 -0.168448 -0.389728 -0.198469 0.474863 -0.166027 0.069696 -0.11598 -0.073543 -0.112441 0.161949 -0.126639 0.036435 0.094092 -0.014164 0.321622 0.447437 0.192209 -0.265561 0.29011 0.057013 -0.420343 0.100166 0.002598 -0.329507 -0.071232 0.374475 0.10411 0.019887 0.307604 0.535209 0.173038 0.121636 0.204566 0.425493 -0.092584 -0.100641 0.071767 -0.500752 -0.472117 -0.557927 -0.238505 -0.057835 -0.695316 0.187184 -0.675201 -0.127356 -0.409914 0.484769 -0.358925 -0.369466 0.587655 -0.243491 0.209467 -0.320236 0.130996 0.245139 -0.207864 -0.202186 -0.009131 -0.053889 0.117139 -0.402164 -0.173289 -0.141124 0.454759 0.1182 -0.157867 0.005448 0.233929 0.196959 -0.166062 0.18628 -0.338818 0.190601 0.745696 -0.799701 -0.263306 0.680905 -0.046346 0.099316 0.078826 -0.253559 0.094868 -0.104754 0.177202 -0.16784 -0.112567 -0.009917 -0.046544 0.012815 0.037389 0.152567 0.043777 -0.035949 0.612216 -0.585888 0.182312 -0.007929 0.168495 0.510749 0.522756 -0.110046 -0.30327 0.162116 -0.116773 -0.115863 0.159743 -0.292468 0.300373 -0.045343 -0.293466 0.062627 0.144451 -0.303682 -0.119863 -0.312124 -0.303795 0.025968 -0.337416 -0.322999 0.006872 0.046952 -0.200297 0.645835 -0.041024 -0.181929 0.599844 0.414954 -0.052568 0.023979 -0.123464 -0.115596 0.133493 0.030347 0.39055 0.306338 0.147939 -0.256744 0.503214 -0.267163 -0.419603 0.223234 -0.373861 -0.069234 -0.043616 0.099899 0.023263 0.163344 0.205516 -0.010982 0.405691 -0.097535 -0.170988 0.137099 0.637687 -0.321334 -0.055169 -0.35546 -0.187876 0.121584 0.24936 0.428277 0.437169
海量 0.304533 -0.212703 0.187836 -0.291245 -0.370351 -0.122808 0.494352 -0.206154 0.36324 0.005221 0.245058 -0.035873 -0.013191 0.198652 -0.045776 -0.245583 0.605605 -0.097661 0.352284 0.404951 -0.02814 -0.73878 0.271987 0.175766 0.243634 -0.01636 -0.194894 0.397872 -0.19688 0.169127 -0.195576 -0.103937 0.167147 0.110824 0.083436 0.720256 -0.114015 0.013387 0.409533 -0.12016 -0.072334 -0.447964 0.223506 -0.079081 -0.068849 0.208641 -0.048615 0.04414 -0.093455 -0.356633 0.246187 0.163772 -0.263361 -0.271367 -0.115211 -0.043224 -0.023548 -0.079522 -0.044108 0.158822 0.515936 -0.359671 0.134653 0.019313 0.466896 -0.079577 0.516451 0.318894 -0.06479 0.066656 -0.171244 -0.367117 0.237398 -0.155614 0.249843 -0.500894 0.266201 0.14348 -0.157401 -0.402829 -0.222214 -0.205925 0.467688 0.350932 -0.636311 -0.048527 -0.217857 0.191623 -0.393889 -0.07672 0.011947 -0.06319 -0.095069 -0.47808 -0.373556 -0.189998 -0.358456 0.09014 -0.070316 -0.036511 0.116475 0.413996 -0.13022 -0.224688 0.256011 -0.046459 0.25879 -0.123063 0.057118 0.483728 -0.114795 -0.585262 -0.211074 -0.228363 0.216832 -0.180686 -0.242335 0.121272 0.281894 -0.265345 -0.131516 -0.134774 0.289931 0.350598 -0.096605 0.301831 -0.206781 0.240487 0.348812 0.050541 -0.256482 0.328637 0.073305 -0.010719 -0.175856 0.107906 -0.190822 0.123196 0.170107 0.581623 0.408014 -0.207072 0.068785 0.00207 -0.162815 -0.13773 0.606155 0.286217 -0.30179 0.339229 0.034699 0.318589 0.195039 0.16315 0.657711 -0.073719 -0.374592 0.045869 0.149899 0.107681 -0.430412 -0.110098 0.067213 0.011102 -0.092905 0.297616 0.418474 -0.393702 -0.238292 -0.023088 -0.101481 -0.027264 0.756943 -0.126646 -0.499036 0.176684 -0.286507 -0.577987 -0.547575 -0.323573 -0.465409 -0.367679 0.2871 -0.472505 -0.09773 0.372249 -0.43545 0.103762 -0.314456 -0.046964 -0.685893 0.000884 0.30892 -0.108268 -0.413299 -0.171278 0.145938 -0.495961 -0.224267 -0.393985 -0.048626 0.577613 -0.413746 0.060329 -0.091024 0.067745 0.344741 0.033768 0.265811 -0.051974 -0.103844 0.035099 -0.167098 0.168518 0.11223 -0.412969 -0.014362 -0.347499 0.113319 -0.177561 -0.265767 -0.118289 -0.564662 0.065174 0.316934 -0.271207 0.19437 -0.205768 0.072685 -0.08284 -0.00432 0.072387 -0.566977 -0.389123 -0.2146 0.342904 0.201317 0.307961 0.292124 0.05651 -0.339154 0.177776 0.106684 0.037877 -0.039923 0.500686 -0.050759 -0.04971 -0.397404 -0.405101 -0.088154 -0.141091 -0.346356 0.466643 0.043225 -0.666471 0.742336 -0.508574 0.163068 -0.156999 0.120816 -0.006828 0.020644 0.260898 0.061298 0.398899 0.232116 -0.114823 -0.472027 -0.018073 -0.65551 0.214763 0.136794 -0.451617 -0.298111 0.293697 -0.235362 -0.291216 -0.271147 -0.527869 0.087244 -0.021773 -0.205915 -0.602038 0.804578 0.153092 -0.191298 0.000188 -0.191016 -0.261892 -0.302268 0.742138 -0.211524 -0.113744 -0.009572 -0.280556 -0.060305 0.354839 0.333017 0.19932
平台 0.570903 -0.255668 -0.064568 -0.328623 -0.011472 0.375207 0.152215 -0.126724 0.184497 -0.165373 0.132908 -0.196675 -0.059013 -0.073468 -0.198751 -0.317956 0.544592 0.014478 0.299291 -0.197675 0.302935 0.014524 0.169839 0.258782 -0.118995 -9e-05 0.082193 0.430419 -0.026374 0.403583 0.039875 0.529109 0.235079 0.413028 0.086325 0.411304 0.054247 0.528927 0.372246 -0.008708 0.210263 -0.386997 -0.245095 -0.114585 0.103411 0.157326 -0.233528 0.217955 -0.008244 -0.079632 0.409338 -0.319877 -0.286865 -0.366317 -0.175751 -0.106331 0.557657 0.189107 -0.178739 -0.363702 0.363919 -0.077531 0.163513 0.386247 0.111242 -0.192303 -0.258957 -0.011168 0.197692 0.070485 -0.046165 -0.056976 0.293272 0.037863 -0.425567 -0.02687 0.063868 0.660637 -0.372889 -0.659676 0.237789 -0.008014 0.053998 0.145381 0.066332 -0.229615 -0.650341 0.156336 0.042574 -0.24988 -0.0062 0.48273 -0.383535 -0.444687 -0.156599 0.178008 -0.314791 -0.560446 0.211349 -0.207134 0.664096 0.061521 -0.202195 -0.557201 0.267715 0.169258 0.439002 0.322558 -0.144028 0.507723 0.248467 0.366884 0.061726 0.102116 -0.664378 0.115401 -0.017877 0.122199 0.337155 -0.046055 0.421919 0.476697 0.410152 0.319922 -0.017337 0.49598 -0.369996 0.385827 0.465685 -0.156423 0.066421 0.292111 -0.205838 -0.08573 -0.055302 0.277236 -0.025687 0.117515 -0.188553 -0.122389 0.285039 -0.305203 -0.021357 -0.092889 -0.464371 0.048251 0.765205 -0.358778 -0.036498 0.107218 0.08383 0.445618 -0.224107 -0.110312 0.218105 -0.060292 -0.014482 0.052286 0.186735 -0.301171 -0.332472 -0.494713 -0.180652 0.057726 -0.302764 0.88462 0.201815 0.099401 -0.425117 -0.073317 0.551217 -0.068503 0.362296 -0.117959 0.059263 -0.444911 0.007543 0.075873 -0.247691 -0.135971 -0.423182 -0.133411 -0.306437 -0.419148 0.339881 -0.046701 -0.470842 0.21941 0.086717 0.540715 -0.119193 -0.032245 0.301991 0.350574 -0.331569 -0.215916 -0.038724 -0.210047 -0.562862 -0.292405 0.447149 0.165024 -0.604899 0.180457 -0.156713 0.192061 -0.265647 -0.103661 0.164116 0.03448 0.182564 0.071268 -0.027425 -0.000436 0.677347 0.112775 0.045765 -0.556242 0.037968 -0.363533 -0.253876 -0.282866 -0.325097 0.321931 0.793635 0.011772 0.035687 0.035359 -0.060965 -0.002256 -0.076073 0.072396 -0.27144 -0.173021 -0.182151 0.255871 0.316329 -0.265565 -0.247177 0.061719 -0.087132 -0.349891 0.042102 -0.279547 -0.162414 0.153677 -0.454787 0.010058 0.111837 0.075403 0.239712 -0.406853 -0.102562 -0.384987 0.476593 0.001501 -0.08599 -0.146799 -0.107626 -0.178345 0.14348 0.227903 -0.022728 0.017795 0.078349 0.583902 -0.093732 0.27676 -0.336008 -0.230574 -0.145304 0.409708 -0.38232 0.182898 0.195573 0.445738 -0.481976 0.04805 0.270696 -0.212789 -0.109693 0.661342 -0.056032 -0.351364 0.132635 -0.125491 0.045773 -0.043091 0.13003 -0.300877 0.030063 -0.058954 -0.038836 -0.20767 -0.078902 -0.138863 -0.474032 0.282273 0.191483 0.320898
网络 0.352243 0.106665 -0.275714 -0.376661 0.044448 0.068089 0.184383 0.187519 0.337198 0.088556 0.144783 0.156195 0.110842 0.142768 -0.02834 -0.118626 0.143176 0.191532 0.299119 -0.215076 0.187475 -0.264961 0.099094 0.194632 0.000912 -0.033053 0.006436 0.23425 -0.014844 0.132837 -0.240483 0.161218 0.278426 0.003036 0.230715 0.263281 -0.433152 0.186724 0.460661 -0.151459 -0.3882 -0.744084 0.017084 0.1297 0.456546 -0.090437 -0.015948 -0.046648 0.089795 0.244088 0.139109 -0.07447 0.245969 0.203719 -0.240163 -0.37527 -0.066212 -0.356211 -0.372432 -0.072909 0.150162 -0.234736 0.162425 0.024264 0.33008 -0.023974 0.163102 0.253454 -0.304144 0.107873 -0.181537 0.345615 0.337531 0.059509 0.181668 -0.201402 0.340122 0.679628 -0.293598 -0.047565 -0.385785 0.04863 -0.104343 0.274999 -0.306562 -0.053152 -0.082489 0.623981 -0.376696 -0.321448 0.083378 -0.121646 -0.151897 -0.250744 -0.11011 -0.124212 -0.575235 -0.14159 0.452226 0.018185 0.261973 0.076506 -0.495625 -0.322793 0.36481 0.008963 0.385637 -0.154503 -0.167908 0.346692 0.13431 -0.415969 -0.457569 -0.319948 -0.348703 -0.082176 -0.136718 0.238631 0.638431 0.094821 -0.338253 0.49487 0.431433 -0.071704 0.212777 0.346006 -0.231129 -0.331083 0.394511 0.094111 -0.327074 0.100641 -0.345735 -0.427452 -0.049127 -0.042374 -0.12833 0.220023 0.02164 -0.291117 0.266732 -0.329751 -0.030298 -0.159768 -0.441394 0.252281 0.222972 -0.072643 -0.270499 0.343689 0.249241 0.34038 0.057554 0.105023 -0.137073 -0.089727 -0.106711 -0.050287 0.463893 0.172888 -0.170694 -0.090811 0.222956 -0.06686 -0.034382 0.03233 -0.388085 0.235578 -0.151272 -0.085589 0.461088 -0.370128 0.115003 -0.182451 0.10294 -0.333823 -0.286551 -0.453735 -0.210173 -0.200301 -0.348559 -0.239277 -0.2368 -0.402867 0.281481 -0.093922 -0.18998 0.475079 -0.304425 0.121994 -0.355244 0.049769 0.186724 0.019671 -0.290561 -0.538256 0.330156 -0.345888 -0.216885 -0.367257 0.095705 0.029606 -0.344389 -0.043772 -0.115789 0.373729 -0.140972 0.116852 0.478004 0.091833 -0.087472 0.02154 -0.239576 -0.008763 0.595206 -0.120748 -0.131869 -0.407447 -0.03413 -0.375732 -0.567008 -0.515704 -0.619314 0.239957 0.132382 0.009309 0.284611 -0.147852 0.206066 -0.228461 -0.195534 0.16951 -0.473481 -0.314459 0.100827 0.001566 0.209871 -0.060229 -0.005053 -0.218141 0.03279 -0.174168 0.127568 -0.075603 -0.071941 0.073669 -0.176313 0.03049 -0.355597 0.110285 0.030024 -0.321929 -0.182526 0.034098 0.059061 0.110865 0.148299 -0.140924 0.35539 -0.211642 0.104138 0.35489 0.319038 0.017724 0.21053 0.298625 0.320694 -0.136625 -0.21212 -0.043589 0.161813 0.24587 -0.025853 -0.188581 0.260541 0.315698 -0.09509 -0.229938 -0.163822 -0.169728 -0.11686 0.10105 -0.306766 0.149797 0.486016 0.158063 -0.441794 -0.07255 0.028736 -0.28832 -0.157628 0.541839 0.160324 -0.097057 -0.008195 -0.180237 0.029333 0.055369 0.377121 0.146913
课程 0.348166 0.227793 0.226064 -0.356849 -0.476887 -0.025578 0.294391 0.011837 0.194503 0.345969 0.313171 0.089887 0.202218 0.439437 -0.583191 -0.117464 0.07352 -0.141204 -0.041126 -0.260694 -0.313931 0.010664 0.270736 0.196192 -0.080148 0.055518 0.253301 0.354179 0.089833 -0.030926 -0.258866 -0.146858 -0.043027 0.610505 0.62103 0.018791 -0.289106 0.259528 0.32575 0.107426 0.23299 -0.194118 0.007486 -0.198113 0.279474 -0.108665 -0.668164 -0.077756 0.108394 -0.162513 0.407473 0.293142 -0.133176 -0.254914 0.058973 0.405568 0.012478 0.08103 0.038344 -0.273124 0.498213 0.379135 -0.08031 0.480431 -0.051623 0.027369 -0.060338 0.036874 0.462406 0.258118 -0.222941 -0.108008 -0.075107 -0.070891 0.217788 0.041549 0.123076 0.694949 -0.37927 -0.030225 0.202918 -0.662947 0.141753 -0.465665 -0.342331 0.188251 -0.298434 0.375432 0.711298 -0.113525 -0.214457 0.235867 -0.253504 -0.5063 -0.412591 -0.007931 -0.080656 -0.28918 0.391653 -0.191165 0.116733 0.491854 -0.121744 0.027323 -0.293891 -0.373434 -0.099419 -0.105261 -0.182658 0.372759 -0.290716 0.285954 0.202148 0.151962 -0.35804 -0.086615 -0.051492 0.124371 0.126636 -0.395025 -0.320588 0.019001 0.155134 0.231144 0.023143 0.05191 -0.265657 -0.034616 0.247567 0.058188 0.192835 -0.233328 -0.303919 -0.618315 -0.050824 -0.193308 -0.133713 0.131572 -0.404619 0.211009 -0.089363 -0.167859 -0.378736 -0.177405 0.037601 0.091042 0.330539 -0.248985 -0.021815 0.138926 0.236531 0.733251 0.372528 -0.153016 -0.038071 -0.166587 -0.078909 -0.53264 -0.507955 -0.119031 -0.735442 -0.061053 0.471498 -0.162526 -0.276933 0.189653 -0.144541 -0.03351 -0.129841 -0.084422 -0.029051 0.004713 0.019759 0.021025 0.007376 0.000123 -0.066536 -0.237281 -0.033185 0.257093 0.006528 -0.372587 0.122688 -0.201117 0.085551 -0.284515 0.270253 0.402891 -0.128662 -0.360779 -0.181038 -0.409714 0.115162 -0.12959 -0.138982 -0.040468 0.062486 0.031619 -0.392649 -0.001351 -0.189477 0.047176 -0.303767 -0.011421 -0.131024 0.202035 -0.062408 0.067464 -0.345973 -0.441194 0.411771 0.245872 0.331133 -0.402813 0.014028 -0.105083 -0.195853 0.085675 0.058213 0.090976 -0.644296 -0.474843 0.142496 0.089236 0.135627 0.215358 -0.033462 -0.118824 0.011608 -0.052235 -0.051508 0.065371 -0.190663 0.125422 0.427087 -0.024355 -0.4378 -0.275303 0.201878 -0.179551 -0.175622 0.150537 -0.168789 -0.117278 -0.343055 -0.068927 -0.439249 0.065219 -0.392505 -0.236848 -0.028645 -0.450203 -0.021117 0.050708 0.068459 0.160378 -0.202865 -0.182397 0.100504 -0.103753 -0.008692 0.140953 0.290252 0.455206 0.310578 0.439845 0.309926 0.092777 -0.297735 -0.033872 -0.410107 0.294357 -0.496565 -0.145922 -0.367669 -0.259385 -0.108191 0.194264 -0.456166 -0.18833 -0.38243 0.389633 -0.597742 -0.495482 0.684159 0.120672 -0.237685 0.252826 -0.169087 -0.406825 -0.167756 0.741842 0.059522 0.298403 -0.223507 0.158979 0.175375 -0.066475 0.037384 -0.332488
对话 0.416258 0.267623 0.168519 0.318606 -0.355276 0.314977 0.339777 -0.309583 -0.028274 0.023967 0.311087 0.103162 0.259422 0.162633 0.084144 0.333325 0.191876 0.398772 0.334145 -0.117101 -0.211188 -0.32484 -0.012853 0.204927 -0.394835 0.21106 0.184255 0.107848 -0.107012 0.12068 0.023015 0.207848 -0.109675 0.312901 0.084947 0.219972 0.155725 0.357662 -0.059594 -0.244006 0.0636 0.161205 -0.045839 -0.122854 0.250676 0.304513 0.179302 -0.475731 0.103856 -0.477724 0.463664 0.288245 0.093132 -0.595918 0.093033 -0.439362 0.514488 -0.432756 -0.38061 -0.012693 0.550535 0.158713 -0.379816 -0.201656 0.322551 0.130592 -0.038712 -0.292983 0.064595 0.006673 -0.137952 0.031918 0.218378 -0.142298 -0.176094 -0.186167 0.190276 0.434756 -0.009194 -0.141277 -0.036928 -0.154101 0.052924 -0.203903 -0.537022 -0.301497 -0.089948 0.143733 0.040082 0.227809 0.359599 -0.034058 0.262056 -0.297 -0.386357 0.084779 -0.36063 -0.408892 0.122895 0.278091 0.226632 0.022543 -0.263865 0.324892 -0.138437 0.24001 0.17656 -0.076538 0.190515 -0.086426 0.21071 -0.058455 0.041206 0.184025 -0.08662 0.173694 -0.214687 0.381264 0.449023 -0.244765 -0.018376 -0.207063 -0.023804 -0.095762 -0.466138 0.46445 0.005306 0.210751 0.339048 0.246539 0.014061 -0.205268 -0.30326 0.130456 -0.001688 -0.150328 0.0045 -0.192861 -0.118067 -0.24139 0.018565 -0.079944 0.159977 -0.141415 -0.389054 0.250878 0.095643 0.288312 -0.099465 0.281153 0.341473 -0.211971 0.280874 -0.26683 0.176517 0.029754 -0.264117 -0.155987 0.311879 -0.10826 0.255694 -0.340326 0.203465 0.120228 -0.34637 0.089099 -0.095375 0.163366 -0.433358 -0.274318 0.060443 0.364857 -0.140677 -0.301828 0.377209 -0.216611 -0.285069 -0.012796 0.121486 0.036594 -0.461192 -0.385846 0.476006 -0.168353 0.406817 -0.121852 0.253735 0.229289 -0.323536 0.164794 -0.069032 -0.506761 -0.066156 -0.077595 -0.546576 -0.234916 0.043493 0.360345 -0.610808 -0.081461 -0.096386 0.226109 -0.059174 -0.017769 0.026696 -0.363952 0.134792 0.128833 0.562331 -0.355847 0.015981 -0.003889 0.106799 -0.24463 -0.082181 -0.202811 -0.031002 0.103105 0.257943 -0.034963 -0.49091 -0.070732 0.229457 0.496881 0.111454 0.116404 -0.116027 -0.083399 0.318033 -0.111428 -0.360489 -0.173375 0.185235 0.155636 -0.161898 0.020475 0.38207 0.265008 0.029522 0.237137 0.034092 0.146002 -0.13099 0.147149 -0.266925 0.217318 0.038109 0.303916 -0.079802 -0.120675 -0.052942 0.142539 -0.149226 0.101692 0.32391 -0.39098 -0.023949 0.143369 0.026044 -0.184506 0.421946 -0.189844 -0.056736 0.078045 -0.041015 0.057486 0.249382 0.247796 0.240292 0.102486 -0.05194 0.027633 -0.238777 0.186985 -0.657154 0.154311 0.087032 -0.077358 0.044038 0.20955 -0.064282 0.521842 0.287724 -0.266547 0.266905 0.174583 -0.103467 0.879094 -0.086902 0.093068 -0.184265 0.047853 0.121738 0.274685 -0.068559 -0.006332 -0.695913 0.436727 0.413349 0.040465
公司 -0.103516 0.446254 -0.008826 -0.363142 0.02208 -0.037411 -0.022764 0.280202 0.384154 0.003973 -0.251163 -0.117381 0.624173 0.055702 -0.350629 0.045454 0.161719 0.050441 0.110581 0.128524 0.028579 -0.088817 0.182468 0.090714 -0.449378 0.24329 -0.055036 0.306345 0.60196 -0.119203 -0.069763 0.011812 -0.039285 0.080591 0.301278 -0.098795 -0.383061 0.325431 0.106934 0.182919 0.271089 -0.062021 -0.174066 -0.334126 0.01554 -0.364443 -0.259966 -0.339039 -0.288339 -0.18215 0.285272 -0.171283 -0.322356 -0.241048 0.12265 -0.263052 -0.267235 -0.155151 0.086322 -0.131712 -0.082167 -0.160318 0.185622 -0.003457 -0.090262 0.388292 -0.245948 0.326686 0.586386 -0.108426 -0.190066 -0.223865 0.187985 -0.449097 -0.090219 0.000578 -0.203776 -0.176062 0.081314 -0.424026 -0.043041 -0.236517 0.061772 -0.50892 -0.375145 -0.043052 -0.088596 0.252947 -0.108008 -0.449064 -0.196505 0.318873 0.15499 -0.021809 0.320077 0.044202 0.369563 0.17547 0.372307 -0.528587 0.517863 0.374889 -0.504823 -0.453345 -0.125081 -0.283176 -0.038266 0.053995 -0.158493 0.490842 0.293638 0.108033 0.095265 -0.588449 -0.413178 -0.148407 -0.089989 0.295636 0.471118 0.173013 0.170914 0.500553 -0.035872 0.064368 -0.128085 0.173961 0.517145 0.099254 0.436549 0.098656 0.045804 0.064738 -0.436807 0.211197 0.169626 0.337056 -0.21503 0.018647 -0.674276 -0.369593 0.357263 0.029623 0.282431 -0.057233 0.002896 0.376343 0.410331 -0.055985 -0.128684 -0.165931 0.034461 -0.097592 0.179983 -0.453422 -0.263297 -0.028237 -0.029043 0.014878 0.174425 -0.284998 0.221117 0.223253 0.225133 0.175337 -0.108248 0.21076 -0.007985 0.050166 -0.187136 -0.080232 0.296998 -0.297875 -0.13481 -0.236853 0.241363 -0.348305 0.126906 -0.112937 0.132444 -0.284735 -0.423603 0.333241 -0.008273 0.314432 0.210063 0.357011 -0.289646 -0.036777 -0.083315 0.067478 0.070472 -0.414344 0.00935 -0.354016 0.063453 0.32223 -0.310803 -0.189591 -0.376256 -0.289692 -0.179071 0.13882 -0.195698 0.499816 -0.073908 0.192343 0.355488 0.024426 -0.196399 -0.141383 0.202946 0.41824 -0.190712 0.114797 0.409056 -0.413392 -0.201792 -0.19141 0.504363 -0.372257 -0.1958 -0.009822 -0.09538 -0.026714 0.209254 0.040288 0.089419 -0.135851 -0.110397 0.077776 -0.332331 -0.018361 -0.456755 -0.356356 0.050065 -0.156612 -0.014855 0.01903 -0.075179 -0.029755 0.010064 -0.172177 -0.021221 0.17207 -0.193242 0.165812 -0.264377 0.081444 -0.026445 0.117805 0.144334 -0.342439 -0.115509 0.027665 -0.020434 -0.266168 -0.077552 -0.131146 0.159591 -0.142627 -0.151751 -0.037468 0.270127 0.024794 0.129455 0.167585 -0.234464 0.09388 -0.364792 0.265988 0.060398 -0.309195 0.032589 -0.037499 -0.052117 -0.314327 -0.092211 -0.152624 -0.056163 0.10359 -0.541865 0.050674 -0.212213 -0.12988 0.533775 -0.39103 -0.056938 0.225788 -0.140282 -0.492186 0.160148 0.402831 0.142837 -0.015932 -0.162297 0.01432 -0.536332 -0.096614 0.170224 -0.174204
机器猫 0.101782 0.507773 0.297912 -0.225059 -0.250111 0.358884 0.070627 -0.196157 0.062528 0.062637 0.580933 -0.183992 0.770289 0.139871 -0.221733 0.166143 -0.109264 -0.047361 0.120533 -0.412074 0.024705 -0.514962 0.011649 -0.274526 -0.237802 -0.075939 -0.05033 0.250521 -0.298288 0.431864 -0.019377 0.027576 -0.153942 0.038238 -0.208419 0.115498 -0.022013 0.397377 0.40794 0.166365 0.085294 -0.126563 -0.117762 -0.644044 0.478118 -0.191182 0.034249 -0.448459 -0.054871 0.104013 0.121314 0.186668 -0.105332 -0.176145 -0.04205 0.032636 0.022844 -0.312596 -0.554833 -0.182269 -0.04886 -0.127182 -0.226853 0.131139 -0.099349 0.316106 0.124978 0.180594 -0.290037 0.054422 -0.560766 -0.337299 0.278062 0.049803 0.455166 -0.16538 -0.284769 0.35123 0.188695 -0.365604 -0.564984 -0.196358 0.355932 -0.294183 -0.335959 0.119392 0.353749 0.084666 0.018527 -0.007317 0.641529 0.07512 0.047716 0.185131 0.0097 0.334732 -0.445153 0.091591 0.397682 -0.00553 0.392631 0.579054 -0.112875 -0.000222 0.248318 -0.301686 0.018861 0.389538 0.261123 0.373234 0.166477 0.398123 0.266045 -0.315262 0.147524 -0.035406 0.131387 0.178632 0.230398 0.014272 -0.18433 -0.105449 0.019402 0.03161 0.1693 0.62835 -0.034975 0.039358 -0.017137 0.185073 0.07402 0.248811 -0.22749 0.234685 0.202372 0.072026 -0.225665 -0.166321 0.04362 0.146738 0.393116 0.12548 -0.81338 0.196829 -0.098171 0.308706 0.2748 -0.244744 -0.367814 0.142199 0.38301 0.161098 0.257897 -0.245438 0.044058 0.267684 -0.100904 0.104039 0.373518 0.020868 0.303333 -0.042576 0.068118 -0.096113 -0.201256 0.365213 -0.0073 0.137557 -0.236137 0.372914 -0.300046 -0.232089 0.095724 0.034097 -0.075969 -0.465469 0.133601 -0.137107 0.070472 -0.269595 0.09074 -0.08046 0.546543 0.019168 0.212931 0.21173 -0.294224 -0.041761 -0.302464 0.027866 -0.304313 -0.378419 0.186295 -0.202625 -0.121184 0.066645 -0.025959 -0.287088 -0.684963 -0.044197 -0.555299 0.269358 0.138947 -0.264551 -0.364323 0.077436 -0.029016 0.086732 -0.199317 -0.594836 0.293946 0.016251 -0.198219 -0.110329 -0.171604 0.268552 0.091557 -0.061804 0.085305 -0.171531 -0.426715 -0.370406 0.35992 -0.229033 0.103381 -0.021782 0.637657 -0.152488 0.116357 -0.164804 -0.123414 0.279302 -0.0413 -0.163105 -0.369544 -0.133821 0.185749 0.205369 -0.086809 0.507219 0.086514 0.594358 -0.601884 0.009841 -0.00873 0.204382 -0.0958 -0.055576 -0.461229 -0.159994 -0.395785 -0.178611 0.224647 0.065712 0.082618 0.622993 -0.007985 0.216031 -0.103805 -0.512339 -0.156909 0.003604 -0.161441 -0.006781 -0.222029 0.148456 0.236881 0.089243 0.422414 0.011414 -0.201871 -0.050004 -0.011995 -0.179374 -0.261195 0.030026 -0.113175 0.089987 0.165281 0.196841 0.15294 -0.268773 -0.053672 -0.188822 0.20824 0.20121 -0.701771 -0.073566 0.459967 0.082685 -0.086373 0.124935 -0.135331 0.408894 -0.270419 0.239273 -0.428503 0.241728 0.439783 0.226988
